{"learner":{"attributes":{"scikit_learn":"{\"_estimator_type\": \"regressor\"}"},"feature_names":["recency","frequency","avg_order_value","avg_shopping_hour","weekend_purchase_ratio","distinct_item_count","std_purchase_interval","last_purchase_interval"],"feature_types":["int","int","float","float","float","int","float","int"],"gradient_booster":{"model":{"gbtree_model_param":{"num_parallel_tree":"1","num_trees":"100"},"iteration_indptr":[0,1,2,3,4,5,6,7,8,9,10,11,12,13,14,15,16,17,18,19,20,21,22,23,24,25,26,27,28,29,30,31,32,33,34,35,36,37,38,39,40,41,42,43,44,45,46,47,48,49,50,51,52,53,54,55,56,57,58,59,60,61,62,63,64,65,66,67,68,69,70,71,72,73,74,75,76,77,78,79,80,81,82,83,84,85,86,87,88,89,90,91,92,93,94,95,96,97,98,99,100],"tree_info":[0,0,0,0,0,0,0,0,0,0,0,0,0,0,0,0,0,0,0,0,0,0,0,0,0,0,0,0,0,0,0,0,0,0,0,0,0,0,0,0,0,0,0,0,0,0,0,0,0,0,0,0,0,0,0,0,0,0,0,0,0,0,0,0,0,0,0,0,0,0,0,0,0,0,0,0,0,0,0,0,0,0,0,0,0,0,0,0,0,0,0,0,0,0,0,0,0,0,0,0],"trees":[{"base_weights":[-1.7527449E-6,-2.0103352E1,1.15990234E2,-3.3315845E1,9.743815E0,1.5289484E2,4.3767277E1,-4.2016193E1,2.146556E0,1.8674034E1,-1.773466E1,1.1229099E2,2.2578902E2,6.3376984E1,1.6861187E1,-4.8575474E1,-3.0004086E1,-6.224365E0,4.7215508E1,7.7996373E0,4.0223175E1,-1.1689608E1,-2.9961899E1,8.976591E0,1.3294364E1,1.908735E1,2.566004E1,5.10879E1,7.687075E1,2.6359741E1,-4.3770633E0,-5.679418E0,-3.7280812E0,-3.2928588E0,-1.7374266E0,7.3535465E-2,-2.156658E0,3.4591107E0,6.6791725E0,4.2470524E-1,5.9182076E0,5.0291076E0,2.1228046E0,-7.8007096E-1,-1.8780454E0,-2.1510909E0,-3.4465587E0,6.4168534E0,2.7625058E0,7.933802E0,2.9041708E0,3.758829E0,1.4290568E0,-1.0879188E0,1.8889432E-1],"categories":[],"categories_nodes":[],"categories_segments":[],"categories_sizes":[],"default_left":[0,0,0,0,0,0,0,0,0,0,0,0,0,0,0,0,0,0,0,0,0,0,0,0,0,0,0,0,0,0,0,0,0,0,0,0,0,0,0,0,0,0,0,0,0,0,0,0,0,0,0,0,0,0,0],"id":0,"left_children":[1,3,5,7,9,11,13,15,17,19,21,23,25,27,29,31,33,35,37,39,41,43,45,-1,-1,-1,-1,47,49,51,53,-1,-1,-1,-1,-1,-1,-1,-1,-1,-1,-1,-1,-1,-1,-1,-1,-1,-1,-1,-1,-1,-1,-1,-1],"loss_changes":[5.209224E6,7.511774E5,8.72877E5,4.0735675E5,1.4388361E5,6.198795E5,5.8552516E4,8.2060875E4,9.8761E4,1.0326184E5,1.0293414E4,5.4125E4,3.3858E4,6.8515312E3,1.000028E4,6.1376625E4,1.3352719E4,2.3613691E4,7.822258E3,5.3598086E4,2.7236094E4,2.5559072E3,1.0474648E3,0E0,0E0,0E0,0E0,9.582977E3,1.118125E3,4.070496E3,6.724278E2,0E0,0E0,0E0,0E0,0E0,0E0,0E0,0E0,0E0,0E0,0E0,0E0,0E0,0E0,0E0,0E0,0E0,0E0,0E0,0E0,0E0,0E0,0E0,0E0],"parents":[2147483647,0,0,1,1,2,2,3,3,4,4,5,5,6,6,7,7,8,8,9,9,10,10,11,11,12,12,13,13,14,14,15,15,16,16,17,17,18,18,19,19,20,20,21,21,22,22,27,27,28,28,29,29,30,30],"right_children":[2,4,6,8,10,12,14,16,18,20,22,24,26,28,30,32,34,36,38,40,42,44,46,-1,-1,-1,-1,48,50,52,54,-1,-1,-1,-1,-1,-1,-1,-1,-1,-1,-1,-1,-1,-1,-1,-1,-1,-1,-1,-1,-1,-1,-1,-1],"split_conditions":[1.47E2,5.8E1,7.0710677E-1,4.8449287E1,5E0,2.42E2,4E0,2.9E1,1.2020815E2,1.08E2,7E0,1.86E2,3.01E2,2E2,5E0,1.9131126E1,3.0664856E1,6E0,1.6334166E2,7.482146E1,2.7764486E1,4.5E1,8E0,8.976591E0,1.3294364E1,1.908735E1,2.566004E1,6.8691826E1,8E1,3E1,6.835203E1,-5.679418E0,-3.7280812E0,-3.2928588E0,-1.7374266E0,7.3535465E-2,-2.156658E0,3.4591107E0,6.6791725E0,4.2470524E-1,5.9182076E0,5.0291076E0,2.1228046E0,-7.8007096E-1,-1.8780454E0,-2.1510909E0,-3.4465587E0,6.4168534E0,2.7625058E0,7.933802E0,2.9041708E0,3.758829E0,1.4290568E0,-1.0879188E0,1.8889432E-1],"split_indices":[7,7,6,6,1,7,1,7,6,7,1,7,7,7,1,6,6,1,6,6,6,0,1,0,0,0,0,6,0,0,6,0,0,0,0,0,0,0,0,0,0,0,0,0,0,0,0,0,0,0,0,0,0,0,0],"split_type":[0,0,0,0,0,0,0,0,0,0,0,0,0,0,0,0,0,0,0,0,0,0,0,0,0,0,0,0,0,0,0,0,0,0,0,0,0,0,0,0,0,0,0,0,0,0,0,0,0,0,0,0,0,0,0],"sum_hessian":[2.232E3,1.903E3,3.29E2,1.319E3,5.84E2,2.17E2,1.12E2,1.059E3,2.6E2,4.41E2,1.43E2,1.41E2,7.6E1,6.4E1,4.8E1,6.83E2,3.76E2,2.2E2,4E1,2.94E2,1.47E2,9.7E1,4.6E1,7E1,7.1E1,3.9E1,3.7E1,3.6E1,2.8E1,3.3E1,1.5E1,3.93E2,2.9E2,3.04E2,7.2E1,1.52E2,6.8E1,2.6E1,1.4E1,2.76E2,1.8E1,9.5E1,5.2E1,6.4E1,3.3E1,1.8E1,2.8E1,2.2E1,1.4E1,2.6E1,2E0,1.6E1,1.7E1,7E0,8E0],"tree_param":{"num_deleted":"0","num_feature":"8","num_nodes":"55","size_leaf_vector":"1"}},{"base_weights":[4.03849E-2,-1.8093616E1,1.0466795E2,-2.9563944E1,9.839784E0,1.3791278E2,3.9605648E1,-3.7148914E1,1.92659E0,2.225021E1,-7.4065986E0,1.0293494E2,2.0741043E2,5.7347244E1,1.5262597E1,-4.3095993E1,-2.4432615E1,-5.5860868E0,4.274123E1,1.0104453E1,4.067457E1,8.13447E-2,-2.1196365E1,8.577342E1,1.2852727E1,1.7819918E1,2.3481716E1,4.62272E1,6.9557396E1,2.3876354E1,-3.9955459E0,-4.8875957E0,-3.0622585E0,-2.1763532E0,-3.800902E0,6.177044E-2,-1.9441181E0,3.4736474E0,7.14188E0,5.6783074E-1,6.313473E0,4.254184E0,-4.383535E-1,3.4968615E-1,-1.062896E0,-1.627483E0,-3.1170635E0,7.2316527E0,9.583206E0,5.8030677E0,2.5046718E0,1.606438E0,7.0894136E0,2.995711E0,6.286823E-1,-7.745851E-1,5.8042955E-1],"categories":[],"categories_nodes":[],"categories_segments":[],"categories_sizes":[],"default_left":[0,0,0,0,0,0,0,0,0,0,0,0,0,0,0,0,0,0,0,0,0,0,0,0,0,0,0,0,0,0,0,0,0,0,0,0,0,0,0,0,0,0,0,0,0,0,0,0,0,0,0,0,0,0,0,0,0],"id":1,"left_children":[1,3,5,7,9,11,13,15,17,19,21,23,25,27,29,31,33,35,37,39,41,43,45,47,-1,-1,-1,49,51,53,55,-1,-1,-1,-1,-1,-1,-1,-1,-1,-1,-1,-1,-1,-1,-1,-1,-1,-1,-1,-1,-1,-1,-1,-1,-1,-1],"loss_changes":[4.2386015E6,6.1034256E5,7.08323E5,3.225255E5,1.189542E5,5.085815E5,4.7927688E4,8.1226875E4,8.08817E4,7.186922E4,2.40606E4,5.353875E4,1.579775E4,5.610078E3,8.223762E3,5.185425E4,1.1819359E4,1.9179775E4,6.931008E3,4.564658E4,1.0955844E4,5.597514E3,3.5179766E3,5.387375E3,0E0,0E0,0E0,7.7966484E3,9.348125E2,3.4482266E3,6.329975E2,0E0,0E0,0E0,0E0,0E0,0E0,0E0,0E0,0E0,0E0,0E0,0E0,0E0,0E0,0E0,0E0,0E0,0E0,0E0,0E0,0E0,0E0,0E0,0E0,0E0,0E0],"parents":[2147483647,0,0,1,1,2,2,3,3,4,4,5,5,6,6,7,7,8,8,9,9,10,10,11,11,12,12,13,13,14,14,15,15,16,16,17,17,18,18,19,19,20,20,21,21,22,22,23,23,27,27,28,28,29,29,30,30],"right_children":[2,4,6,8,10,12,14,16,18,20,22,24,26,28,30,32,34,36,38,40,42,44,46,48,-1,-1,-1,50,52,54,56,-1,-1,-1,-1,-1,-1,-1,-1,-1,-1,-1,-1,-1,-1,-1,-1,-1,-1,-1,-1,-1,-1,-1,-1,-1,-1],"split_conditions":[1.47E2,6.1E1,7.0710677E-1,4.8449287E1,4E0,2.5E2,4E0,3.3E1,1.2020815E2,1.07E2,6E0,1.95E2,3.15E2,2E2,5E0,2.4262453E1,8E0,6E0,1.9091884E2,7.482146E1,7.596271E1,7.2E1,8E0,1.67E2,1.2852727E1,1.7819918E1,2.3481716E1,6.8691826E1,3.415E1,4.2E1,2.3741007E-1,-4.8875957E0,-3.0622585E0,-2.1763532E0,-3.800902E0,6.177044E-2,-1.9441181E0,3.4736474E0,7.14188E0,5.6783074E-1,6.313473E0,4.254184E0,-4.383535E-1,3.4968615E-1,-1.062896E0,-1.627483E0,-3.1170635E0,7.2316527E0,9.583206E0,5.8030677E0,2.5046718E0,1.606438E0,7.0894136E0,2.995711E0,6.286823E-1,-7.745851E-1,5.8042955E-1],"split_indices":[7,7,6,6,1,7,1,7,6,7,1,7,7,7,1,6,1,1,6,6,6,0,1,7,0,0,0,6,2,0,4,0,0,0,0,0,0,0,0,0,0,0,0,0,0,0,0,0,0,0,0,0,0,0,0,0,0],"split_type":[0,0,0,0,0,0,0,0,0,0,0,0,0,0,0,0,0,0,0,0,0,0,0,0,0,0,0,0,0,0,0,0,0,0,0,0,0,0,0,0,0,0,0,0,0,0,0,0,0,0,0,0,0,0,0,0,0],"sum_hessian":[2.232E3,1.903E3,3.29E2,1.349E3,5.54E2,2.17E2,1.12E2,1.087E3,2.62E2,3.22E2,2.32E2,1.46E2,7.1E1,6.4E1,4.8E1,7.39E2,3.48E2,2.22E2,4E1,1.95E2,1.27E2,1.51E2,8.1E1,9E1,5.6E1,3.8E1,3.3E1,3.6E1,2.8E1,3.3E1,1.5E1,5.03E2,2.36E2,2.93E2,5.5E1,1.54E2,6.8E1,3.3E1,7E0,1.81E2,1.4E1,1.22E2,5E0,1.15E2,3.6E1,5.6E1,2.5E1,4.2E1,4.8E1,2.2E1,1.4E1,1E0,2.7E1,2.4E1,9E0,1.1E1,4E0],"tree_param":{"num_deleted":"0","num_feature":"8","num_nodes":"57","size_leaf_vector":"1"}},{"base_weights":[7.72994E-2,-1.6284231E1,9.4478134E1,-2.7019207E1,7.966114E0,1.2444705E2,3.5825912E1,-3.313366E1,6.3990884E0,1.5336766E1,-1.4713012E1,8.984193E1,1.8186755E2,5.187411E1,1.3806341E1,-3.82075E1,-2.1920034E1,-1.6724476E0,3.872602E1,6.5098977E0,3.2827236E1,-9.851116E0,-2.4537539E1,6.958214E0,1.04091866E2,1.4529838E1,2.027842E1,4.317689E1,6.493283E1,2.1595316E1,-3.608128E0,-4.5565014E0,-2.8734312E0,-2.9536283E0,-1.694178E0,3.750784E-1,-1.5783652E0,2.9359024E0,5.8916354E0,3.5822222E-1,4.88497E0,4.110449E0,1.721509E0,-6.225707E-1,-1.5659881E0,-1.7873433E0,-2.8057556E0,9.379655E0,1.1860805E1,5.4104667E0,2.5600708E0,1.5261163E0,6.6428943E0,3.3250306E0,1.2796977E0,-9.418874E-1,1.9578825E-1],"categories":[],"categories_nodes":[],"categories_segments":[],"categories_sizes":[],"default_left":[0,0,0,0,0,0,0,0,0,0,0,0,0,0,0,0,0,0,0,0,0,0,0,0,0,0,0,0,0,0,0,0,0,0,0,0,0,0,0,0,0,0,0,0,0,0,0,0,0,0,0,0,0,0,0,0,0],"id":2,"left_children":[1,3,5,7,9,11,13,15,17,19,21,23,25,27,29,31,33,35,37,39,41,43,45,-1,47,-1,-1,49,51,53,55,-1,-1,-1,-1,-1,-1,-1,-1,-1,-1,-1,-1,-1,-1,-1,-1,-1,-1,-1,-1,-1,-1,-1,-1,-1,-1],"loss_changes":[3.4505012E6,4.9587762E5,5.7559675E5,2.699337E5,9.801422E4,4.1683625E5,3.9215125E4,6.26585E4,5.3555008E4,6.802493E4,6.6365566E3,3.2597875E4,3.2493E4,4.57875E3,6.724323E3,5.215E4,1.2770078E4,1.2686375E4,6.0243086E3,3.639239E4,1.8417797E4,1.9663018E3,6.0102734E2,0E0,6.813125E2,0E0,0E0,6.6817656E3,7.697656E2,3.0610098E3,5.359238E2,0E0,0E0,0E0,0E0,0E0,0E0,0E0,0E0,0E0,0E0,0E0,0E0,0E0,0E0,0E0,0E0,0E0,0E0,0E0,0E0,0E0,0E0,0E0,0E0,0E0,0E0],"parents":[2147483647,0,0,1,1,2,2,3,3,4,4,5,5,6,6,7,7,8,8,9,9,10,10,11,11,12,12,13,13,14,14,15,15,16,16,17,17,18,18,19,19,20,20,21,21,22,22,24,24,27,27,28,28,29,29,30,30],"right_children":[2,4,6,8,10,12,14,16,18,20,22,24,26,28,30,32,34,36,38,40,42,44,46,-1,48,-1,-1,50,52,54,56,-1,-1,-1,-1,-1,-1,-1,-1,-1,-1,-1,-1,-1,-1,-1,-1,-1,-1,-1,-1,-1,-1,-1,-1,-1,-1],"split_conditions":[1.47E2,5.8E1,7.0710677E-1,5.5841442E1,5E0,2.37E2,4E0,2.6465818E1,1.2020815E2,1.08E2,7E0,1.8E2,2.85E2,2.14E2,5E0,2.4E1,1.3E1,6E0,1.7465538E2,7.482146E1,2.7764486E1,4.4E1,8E0,6.958214E0,2.07E2,1.4529838E1,2.027842E1,7.482146E1,3.415E1,2.3E1,6.835203E1,-4.5565014E0,-2.8734312E0,-2.9536283E0,-1.694178E0,3.750784E-1,-1.5783652E0,2.9359024E0,5.8916354E0,3.5822222E-1,4.88497E0,4.110449E0,1.721509E0,-6.225707E-1,-1.5659881E0,-1.7873433E0,-2.8057556E0,9.379655E0,1.1860805E1,5.4104667E0,2.5600708E0,1.5261163E0,6.6428943E0,3.3250306E0,1.2796977E0,-9.418874E-1,1.9578825E-1],"split_indices":[7,7,6,6,1,7,1,6,6,7,1,7,7,7,1,7,7,1,6,6,6,0,1,0,7,0,0,6,2,0,6,0,0,0,0,0,0,0,0,0,0,0,0,0,0,0,0,0,0,0,0,0,0,0,0,0,0],"split_type":[0,0,0,0,0,0,0,0,0,0,0,0,0,0,0,0,0,0,0,0,0,0,0,0,0,0,0,0,0,0,0,0,0,0,0,0,0,0,0,0,0,0,0,0,0,0,0,0,0,0,0,0,0,0,0,0,0],"sum_hessian":[2.232E3,1.903E3,3.29E2,1.319E3,5.84E2,2.17E2,1.12E2,1.115E3,2.04E2,4.41E2,1.43E2,1.37E2,8E1,6.4E1,4.8E1,7.66E2,3.49E2,1.64E2,4E1,2.94E2,1.47E2,9.7E1,4.6E1,5.9E1,7.8E1,3.2E1,4.8E1,4.1E1,2.3E1,3.3E1,1.5E1,4.29E2,3.37E2,1.36E2,2.13E2,1.19E2,4.5E1,2.9E1,1.1E1,2.76E2,1.8E1,9.5E1,5.2E1,6.1E1,3.6E1,1.8E1,2.8E1,5E1,2.8E1,2.4E1,1.7E1,1E0,2.2E1,1.3E1,2E1,7E0,8E0],"tree_param":{"num_deleted":"0","num_feature":"8","num_nodes":"57","size_leaf_vector":"1"}},{"base_weights":[1.0666961E-1,-1.5236078E1,8.2137764E1,-2.432066E1,6.0905366E0,1.10066246E2,3.117027E1,-3.1730549E1,-1.6299806E0,1.6080349E1,-7.323572E0,7.9537994E1,1.6411052E2,4.5397144E1,1.3151825E1,-3.6088573E1,-2.0747091E1,-8.064403E0,2.8877457E1,6.7218723E0,3.0470425E1,-1.2872586E0,-1.7436861E1,6.1385436E0,9.357112E1,1.3510648E1,1.8660002E1,3.618636E1,5.7171482E1,2.0777954E1,-1.995414E0,-4.14842E0,-2.8601234E0,-1.8422695E0,-3.1839998E0,-2.238311E-1,-1.7198372E0,2.0594695E0,5.069621E0,2.4505113E-1,5.1803904E0,3.1987386E0,-5.4528326E-1,2.3402679E-1,-8.7342185E-1,-1.3454994E0,-2.5348551E0,8.437227E0,1.0715623E1,4.9686713E0,2.3990817E0,5.9109454E0,2.0672603E0,3.1061838E0,1.1886865E0,1.0743679E0,-4.0077397E-1],"categories":[],"categories_nodes":[],"categories_segments":[],"categories_sizes":[],"default_left":[0,0,0,0,0,0,0,0,0,0,0,0,0,0,0,0,0,0,0,0,0,0,0,0,0,0,0,0,0,0,0,0,0,0,0,0,0,0,0,0,0,0,0,0,0,0,0,0,0,0,0,0,0,0,0,0,0],"id":3,"left_children":[1,3,5,7,9,11,13,15,17,19,21,23,25,27,29,31,33,35,37,39,41,43,45,-1,47,-1,-1,49,51,53,55,-1,-1,-1,-1,-1,-1,-1,-1,-1,-1,-1,-1,-1,-1,-1,-1,-1,-1,-1,-1,-1,-1,-1,-1,-1,-1],"loss_changes":[2.8116655E6,3.6477306E5,4.9762175E5,2.2188712E5,7.556226E4,3.6146925E5,3.1702562E4,4.6878062E4,6.4225938E4,4.3293336E4,1.4689878E4,3.1702562E4,2.762425E4,5.5227188E3,6.6258027E3,2.7537062E4,6.7619453E3,1.4329645E4,9.256941E3,3.780769E4,7.095172E3,4.126575E3,2.4942344E3,0E0,1.0813125E3,0E0,0E0,5.7230312E3,8.2933594E2,3.1053008E3,5.5576184E2,0E0,0E0,0E0,0E0,0E0,0E0,0E0,0E0,0E0,0E0,0E0,0E0,0E0,0E0,0E0,0E0,0E0,0E0,0E0,0E0,0E0,0E0,0E0,0E0,0E0,0E0],"parents":[2147483647,0,0,1,1,2,2,3,3,4,4,5,5,6,6,7,7,8,8,9,9,10,10,11,11,12,12,13,13,14,14,15,15,16,16,17,17,18,18,19,19,20,20,21,21,22,22,24,24,27,27,28,28,29,29,30,30],"right_children":[2,4,6,8,10,12,14,16,18,20,22,24,26,28,30,32,34,36,38,40,42,44,46,-1,48,-1,-1,50,52,54,56,-1,-1,-1,-1,-1,-1,-1,-1,-1,-1,-1,-1,-1,-1,-1,-1,-1,-1,-1,-1,-1,-1,-1,-1,-1,-1],"split_conditions":[1.41E2,5.8E1,7.0710677E-1,4.1313435E1,4E0,2.37E2,4E0,3.5E1,1.06773125E2,1.03E2,6E0,1.77E2,2.91E2,2E2,5E0,1.6994116E1,8E0,6E0,1.6334166E2,7.210548E1,7.596271E1,6E1,8E0,6.1385436E0,2.07E2,1.3510648E1,1.8660002E1,5.0520622E1,8E1,2.3E1,4.6572525E1,-4.14842E0,-2.8601234E0,-1.8422695E0,-3.1839998E0,-2.238311E-1,-1.7198372E0,2.0594695E0,5.069621E0,2.4505113E-1,5.1803904E0,3.1987386E0,-5.4528326E-1,2.3402679E-1,-8.7342185E-1,-1.3454994E0,-2.5348551E0,8.437227E0,1.0715623E1,4.9686713E0,2.3990817E0,5.9109454E0,2.0672603E0,3.1061838E0,1.1886865E0,1.0743679E0,-4.0077397E-1],"split_indices":[7,7,6,6,1,7,1,7,6,7,1,7,7,7,1,6,1,1,6,6,6,0,1,0,7,0,0,6,0,0,6,0,0,0,0,0,0,0,0,0,0,0,0,0,0,0,0,0,0,0,0,0,0,0,0,0,0],"split_type":[0,0,0,0,0,0,0,0,0,0,0,0,0,0,0,0,0,0,0,0,0,0,0,0,0,0,0,0,0,0,0,0,0,0,0,0,0,0,0,0,0,0,0,0,0,0,0,0,0,0,0,0,0,0,0,0,0],"sum_hessian":[2.232E3,1.881E3,3.51E2,1.319E3,5.62E2,2.26E2,1.25E2,9.94E2,3.25E2,3.22E2,2.4E2,1.46E2,8E1,6.9E1,5.6E1,7.1E2,2.84E2,2.69E2,5.6E1,1.96E2,1.26E2,1.51E2,8.9E1,6.6E1,8E1,3.8E1,4.2E1,4.1E1,2.8E1,3.7E1,1.9E1,4.1E2,3E2,2.37E2,4.7E1,1.65E2,1.04E2,4.2E1,1.4E1,1.8E2,1.6E1,1.21E2,5E0,1.02E2,4.9E1,6.1E1,2.8E1,5.2E1,2.8E1,1.8E1,2.3E1,2.6E1,2E0,1.6E1,2.1E1,2E0,1.7E1],"tree_param":{"num_deleted":"0","num_feature":"8","num_nodes":"57","size_leaf_vector":"1"}},{"base_weights":[1.2935966E-1,-1.3317015E1,7.635185E1,-2.1581226E1,6.9920797E0,1.0090811E2,2.9121443E1,-2.579487E1,9.918966E0,1.6224129E1,-5.8271756E0,7.667777E1,1.5628377E2,4.229607E1,1.1500915E1,-3.0678988E1,-1.6416391E1,2.281148E0,3.203163E1,9.324388E0,3.3222137E1,2.8507013E0,-1.2242834E1,6.3572536E1,9.809428E0,1.3305486E1,1.7423292E1,3.398386E1,5.172945E1,1.7669914E1,-1.876494E0,-3.505132E0,-1.8364298E0,-2.1380472E0,-8.9909935E-1,5.768519E-1,-1.4434007E0,2.5549066E0,5.557857E0,6.2654305E-1,4.9655166E0,3.580654E0,-3.2750866E-1,7.934204E-1,-6.2658226E-1,-8.3067316E-1,-2.057328E0,5.118976E0,7.076818E0,4.675976E0,2.2566855E0,1.1542634E0,5.2752457E0,2.0354304E0,-8.222677E-1,2.0489521E-1,-9.4146377E-1],"categories":[],"categories_nodes":[],"categories_segments":[],"categories_sizes":[],"default_left":[0,0,0,0,0,0,0,0,0,0,0,0,0,0,0,0,0,0,0,0,0,0,0,0,0,0,0,0,0,0,0,0,0,0,0,0,0,0,0,0,0,0,0,0,0,0,0,0,0,0,0,0,0,0,0,0,0],"id":4,"left_children":[1,3,5,7,9,11,13,15,17,19,21,23,25,27,29,31,33,35,37,39,41,43,45,47,-1,-1,-1,49,51,53,55,-1,-1,-1,-1,-1,-1,-1,-1,-1,-1,-1,-1,-1,-1,-1,-1,-1,-1,-1,-1,-1,-1,-1,-1,-1,-1],"loss_changes":[2.2896548E6,3.188765E5,3.85595E5,1.7944219E5,6.5185938E4,2.83206E5,2.644225E4,5.4050812E4,2.694973E4,3.722042E4,1.2895664E4,3.7267438E4,4.3355E3,3.4172422E3,4.2419453E3,4.1462188E4,1.4920477E4,7.078296E3,4.838449E3,2.794064E4,8.795031E3,4.6377573E3,4.1901035E3,5.1985E3,0E0,0E0,0E0,4.4875547E3,5.833203E2,2.6000693E3,5.2232996E2,0E0,0E0,0E0,0E0,0E0,0E0,0E0,0E0,0E0,0E0,0E0,0E0,0E0,0E0,0E0,0E0,0E0,0E0,0E0,0E0,0E0,0E0,0E0,0E0,0E0,0E0],"parents":[2147483647,0,0,1,1,2,2,3,3,4,4,5,5,6,6,7,7,8,8,9,9,10,10,11,11,12,12,13,13,14,14,15,15,16,16,17,17,18,18,19,19,20,20,21,21,22,22,23,23,27,27,28,28,29,29,30,30],"right_children":[2,4,6,8,10,12,14,16,18,20,22,24,26,28,30,32,34,36,38,40,42,44,46,48,-1,-1,-1,50,52,54,56,-1,-1,-1,-1,-1,-1,-1,-1,-1,-1,-1,-1,-1,-1,-1,-1,-1,-1,-1,-1,-1,-1,-1,-1,-1,-1],"split_conditions":[1.45E2,6.1E1,7.0710677E-1,6.490616E1,4E0,2.57E2,4E0,2.6072975E1,1.2020815E2,1.15E2,5E0,2E2,3.15E2,2E2,5E0,3.8E1,2.5E1,7E0,1.9091884E2,7.482146E1,7.0844315E1,6E1,7E0,1.65E2,9.809428E0,1.3305486E1,1.7423292E1,5.0520622E1,3.415E1,1.1E2,6E0,-3.505132E0,-1.8364298E0,-2.1380472E0,-8.9909935E-1,5.768519E-1,-1.4434007E0,2.5549066E0,5.557857E0,6.2654305E-1,4.9655166E0,3.580654E0,-3.2750866E-1,7.934204E-1,-6.2658226E-1,-8.3067316E-1,-2.057328E0,5.118976E0,7.076818E0,4.675976E0,2.2566855E0,1.1542634E0,5.2752457E0,2.0354304E0,-8.222677E-1,2.0489521E-1,-9.4146377E-1],"split_indices":[7,7,6,6,1,7,1,6,6,7,1,7,7,7,1,7,7,1,6,6,6,0,1,7,0,0,0,6,2,0,1,0,0,0,0,0,0,0,0,0,0,0,0,0,0,0,0,0,0,0,0,0,0,0,0,0,0],"split_type":[0,0,0,0,0,0,0,0,0,0,0,0,0,0,0,0,0,0,0,0,0,0,0,0,0,0,0,0,0,0,0,0,0,0,0,0,0,0,0,0,0,0,0,0,0,0,0,0,0,0,0,0,0,0,0,0,0],"sum_hessian":[2.232E3,1.898E3,3.34E2,1.349E3,5.49E2,2.19E2,1.15E2,1.19E3,1.59E2,3.19E2,2.3E2,1.54E2,6.5E1,6.5E1,5E1,7.81E2,4.09E2,1.19E2,4E1,2.28E2,9.1E1,9.8E1,1.32E2,9.8E1,5.6E1,3.2E1,3.3E1,3.7E1,2.8E1,3.4E1,1.6E1,5.75E2,2.06E2,2.44E2,1.65E2,9.9E1,2E1,3.3E1,7E0,2.13E2,1.5E1,8.5E1,6E0,6.3E1,3.5E1,9.1E1,4.1E1,3.9E1,5.9E1,1.6E1,2.1E1,1E0,2.7E1,3.1E1,3E0,1.1E1,5E0],"tree_param":{"num_deleted":"0","num_feature":"8","num_nodes":"57","size_leaf_vector":"1"}},{"base_weights":[1.4847235E-1,-1.2349043E1,6.6967155E1,-2.0451246E1,3.4062498E0,8.938542E1,2.502561E1,-2.712975E1,-2.0438783E0,9.043642E0,-1.1863725E1,6.283178E1,1.312176E2,3.6493896E1,1.0905098E1,-3.2804756E1,-2.1885656E1,-6.3994775E0,2.9026339E1,-4.1273218E-1,1.7726595E1,-7.9633737E0,-1.871817E1,4.8184886E0,7.2662883E0,1.0186962E1,1.4697423E1,2.8125422E1,4.677821E1,1.7154974E1,-1.5149193E0,-3.9298348E0,-2.7083435E0,-2.433157E0,-1.5884533E0,-1.0790082E-1,-1.4235772E0,2.3069303E0,5.071544E0,-4.696521E-1,2.870172E0,2.4444969E0,6.555416E-1,-4.452927E-1,-1.2903299E0,-1.5038794E0,-2.4724364E0,3.5120428E0,1.5437889E0,4.8490195E0,1.5777599E0,2.5071201E0,7.919209E-1,8.4616053E-1,-3.773224E-1],"categories":[],"categories_nodes":[],"categories_segments":[],"categories_sizes":[],"default_left":[0,0,0,0,0,0,0,0,0,0,0,0,0,0,0,0,0,0,0,0,0,0,0,0,0,0,0,0,0,0,0,0,0,0,0,0,0,0,0,0,0,0,0,0,0,0,0,0,0,0,0,0,0,0,0],"id":5,"left_children":[1,3,5,7,9,11,13,15,17,19,21,23,25,27,29,31,33,35,37,39,41,43,45,-1,-1,-1,-1,47,49,51,53,-1,-1,-1,-1,-1,-1,-1,-1,-1,-1,-1,-1,-1,-1,-1,-1,-1,-1,-1,-1,-1,-1,-1,-1],"loss_changes":[1.8655328E6,2.4031175E5,3.2873338E5,1.5275116E5,5.5200305E4,2.4612788E5,1.968236E4,2.6423375E4,4.5115117E4,3.8434445E4,4.476051E3,1.6946062E4,2.5721125E4,4.5366953E3,4.450531E3,1.5133875E4,6.6150156E3,1.2158927E4,4.12734E3,2.8196834E4,1.8152477E4,1.884773E3,9.983164E2,0E0,0E0,0E0,0E0,3.007787E3,7.740469E2,2.5797285E3,4.8252814E2,0E0,0E0,0E0,0E0,0E0,0E0,0E0,0E0,0E0,0E0,0E0,0E0,0E0,0E0,0E0,0E0,0E0,0E0,0E0,0E0,0E0,0E0,0E0,0E0],"parents":[2147483647,0,0,1,1,2,2,3,3,4,4,5,5,6,6,7,7,8,8,9,9,10,10,11,11,12,12,13,13,14,14,15,15,16,16,17,17,18,18,19,19,20,20,21,21,22,22,27,27,28,28,29,29,30,30],"right_children":[2,4,6,8,10,12,14,16,18,20,22,24,26,28,30,32,34,36,38,40,42,44,46,-1,-1,-1,-1,48,50,52,54,-1,-1,-1,-1,-1,-1,-1,-1,-1,-1,-1,-1,-1,-1,-1,-1,-1,-1,-1,-1,-1,-1,-1,-1],"split_conditions":[1.41E2,5.1E1,1.5636496E1,4.0003334E1,5E0,2.28E2,4E0,1.8E1,1.2020815E2,8.5E1,7E0,1.73E2,2.73E2,2E2,5E0,1.3629258E1,2.2538855E1,6E0,1.9091884E2,5.0654713E1,2.7764486E1,3.7E1,9E0,4.8184886E0,7.2662883E0,1.0186962E1,1.4697423E1,6.8691826E1,8E1,3E1,5.3740116E1,-3.9298348E0,-2.7083435E0,-2.433157E0,-1.5884533E0,-1.0790082E-1,-1.4235772E0,2.3069303E0,5.071544E0,-4.696521E-1,2.870172E0,2.4444969E0,6.555416E-1,-4.452927E-1,-1.2903299E0,-1.5038794E0,-2.4724364E0,3.5120428E0,1.5437889E0,4.8490195E0,1.5777599E0,2.5071201E0,7.919209E-1,8.4616053E-1,-3.773224E-1],"split_indices":[7,7,6,6,1,7,1,7,6,7,1,7,7,7,1,6,6,1,6,6,6,0,1,0,0,0,0,6,0,0,6,0,0,0,0,0,0,0,0,0,0,0,0,0,0,0,0,0,0,0,0,0,0,0,0],"split_type":[0,0,0,0,0,0,0,0,0,0,0,0,0,0,0,0,0,0,0,0,0,0,0,0,0,0,0,0,0,0,0,0,0,0,0,0,0,0,0,0,0,0,0,0,0,0,0,0,0,0,0,0,0,0,0],"sum_hessian":[2.232E3,1.881E3,3.51E2,1.242E3,6.39E2,2.28E2,1.23E2,9.11E2,3.31E2,4.67E2,1.72E2,1.41E2,8.7E1,6.7E1,5.6E1,4.35E2,4.76E2,2.91E2,4E1,2.24E2,2.43E2,1.11E2,6.1E1,5.9E1,8.2E1,3.3E1,5.4E1,3.9E1,2.8E1,3.7E1,1.9E1,2.01E2,2.34E2,3.36E2,1.4E2,1.74E2,1.17E2,3.3E1,7E0,1.96E2,2.8E1,1.51E2,9.2E1,6.6E1,4.5E1,4E1,2.1E1,2.4E1,1.5E1,2.6E1,2E0,1.9E1,1.8E1,3E0,1.6E1],"tree_param":{"num_deleted":"0","num_feature":"8","num_nodes":"55","size_leaf_vector":"1"}},{"base_weights":[1.5476082E-1,-1.1116808E1,6.041879E1,-1.776419E1,4.4882746E0,8.060832E1,2.2646036E1,-2.1373882E1,8.539662E0,1.19373665E1,-5.5139875E0,5.6633705E1,1.18378624E2,3.301337E1,9.880691E0,-2.4511734E1,-1.16881075E1,2.3991299E0,2.6303667E1,9.064667E-1,1.955607E1,-1.0252646E0,-1.3033675E1,4.428642E0,6.6197047E0,1.0097061E1,1.4305694E1,2.4993973E1,4.177865E1,1.5526293E1,-1.339988E0,-3.0584943E0,-1.9390976E0,-1.6152585E0,-4.8105413E-1,-2.53593E-1,1.3115205E0,2.0830224E0,4.6277847E0,-4.4069958E-1,3.114788E0,1.45867E0,2.9660296E0,4.4148914E-3,-2.0280228E0,-1.0025357E0,-1.9015818E0,3.5227468E0,1.5950185E0,4.421161E0,1.4303261E0,1.7794253E0,-8.1999207E-1,9.886913E-1,-3.136694E-1],"categories":[],"categories_nodes":[],"categories_segments":[],"categories_sizes":[],"default_left":[0,0,0,0,0,0,0,0,0,0,0,0,0,0,0,0,0,0,0,0,0,0,0,0,0,0,0,0,0,0,0,0,0,0,0,0,0,0,0,0,0,0,0,0,0,0,0,0,0,0,0,0,0,0,0],"id":6,"left_children":[1,3,5,7,9,11,13,15,17,19,21,23,25,27,29,31,33,35,37,39,41,43,45,-1,-1,-1,-1,47,49,51,53,-1,-1,-1,-1,-1,-1,-1,-1,-1,-1,-1,-1,-1,-1,-1,-1,-1,-1,-1,-1,-1,-1,-1,-1],"loss_changes":[1.5174819E6,1.9530511E5,2.6661475E5,1.2551497E5,4.20137E4,2.0066175E5,1.6084285E4,3.4999188E4,1.7389764E4,2.7127562E4,8.121302E3,1.3835906E4,2.3360375E4,3.7356562E3,3.6316113E3,2.6650062E4,8.703852E3,6.3793955E3,3.5184531E3,2.150859E4,9.157781E3,3.1308062E3,1.4290176E3,0E0,0E0,0E0,0E0,2.954998E3,1.4398711E3,2.1906943E3,4.3444104E2,0E0,0E0,0E0,0E0,0E0,0E0,0E0,0E0,0E0,0E0,0E0,0E0,0E0,0E0,0E0,0E0,0E0,0E0,0E0,0E0,0E0,0E0,0E0,0E0],"parents":[2147483647,0,0,1,1,2,2,3,3,4,4,5,5,6,6,7,7,8,8,9,9,10,10,11,11,12,12,13,13,14,14,15,15,16,16,17,17,18,18,19,19,20,20,21,21,22,22,27,27,28,28,29,29,30,30],"right_children":[2,4,6,8,10,12,14,16,18,20,22,24,26,28,30,32,34,36,38,40,42,44,46,-1,-1,-1,-1,48,50,52,54,-1,-1,-1,-1,-1,-1,-1,-1,-1,-1,-1,-1,-1,-1,-1,-1,-1,-1,-1,-1,-1,-1,-1,-1],"split_conditions":[1.41E2,5.8E1,1.5636496E1,6.490616E1,4E0,2.28E2,4E0,3.2556545E1,1.2020815E2,8.5E1,6E0,1.75E2,3.15E2,1.91E2,5E0,1.9E1,2.4E1,2.9E1,1.9091884E2,4.6776062E1,1.21E2,1.29E2,8E0,4.428642E0,6.6197047E0,1.0097061E1,1.4305694E1,5.0520622E1,8E1,1.1E2,7E0,-3.0584943E0,-1.9390976E0,-1.6152585E0,-4.8105413E-1,-2.53593E-1,1.3115205E0,2.0830224E0,4.6277847E0,-4.4069958E-1,3.114788E0,1.45867E0,2.9660296E0,4.4148914E-3,-2.0280228E0,-1.0025357E0,-1.9015818E0,3.5227468E0,1.5950185E0,4.421161E0,1.4303261E0,1.7794253E0,-8.1999207E-1,9.886913E-1,-3.136694E-1],"split_indices":[7,7,6,6,1,7,1,6,6,7,1,7,7,7,1,7,7,7,6,6,7,0,1,0,0,0,0,6,0,0,0,0,0,0,0,0,0,0,0,0,0,0,0,0,0,0,0,0,0,0,0,0,0,0,0],"split_type":[0,0,0,0,0,0,0,0,0,0,0,0,0,0,0,0,0,0,0,0,0,0,0,0,0,0,0,0,0,0,0,0,0,0,0,0,0,0,0,0,0,0,0,0,0,0,0,0,0,0,0,0,0,0,0],"sum_hessian":[2.232E3,1.881E3,3.51E2,1.319E3,5.62E2,2.28E2,1.23E2,1.16E3,1.59E2,3.22E2,2.4E2,1.41E2,8.7E1,6.7E1,5.6E1,8.75E2,2.85E2,1.19E2,4E1,1.32E2,1.9E2,1.51E2,8.9E1,6.4E1,7.7E1,5.4E1,3.3E1,3.7E1,3E1,3.7E1,1.9E1,3.98E2,4.77E2,1.72E2,1.13E2,8.2E1,3.7E1,3.3E1,7E0,1.13E2,1.9E1,1.29E2,6.1E1,1.44E2,7E0,6.1E1,2.8E1,1.6E1,2.1E1,2.7E1,3E0,3.4E1,3E0,2E0,1.7E1],"tree_param":{"num_deleted":"0","num_feature":"8","num_nodes":"55","size_leaf_vector":"1"}},{"base_weights":[1.6207924E-1,-9.935532E0,5.4886024E1,-1.6611534E1,2.965408E0,7.303269E1,2.067144E1,-2.057139E1,4.2661667E0,7.6426196E0,-9.712362E0,5.534165E1,1.153496E2,3.0089666E1,9.03407E0,-2.4495846E1,-1.4233279E1,-8.0722624E-1,2.3836979E1,1.8198378E0,1.7571047E1,-6.5265765E0,-1.5362064E1,4.5676163E1,7.2345147E0,1.0056501E1,1.3557375E1,2.2825184E1,3.7789547E1,1.399891E1,-1.3710873E0,-3.1802397E0,-2.1204586E0,-1.2105196E0,-2.5492256E0,2.2735658E-1,-1.3601257E0,1.8808466E0,4.2228537E0,-4.7019895E-2,3.2048905E0,2.3845067E0,5.557782E-1,-8.1634706E-1,3.1972638E-1,-1.2137508E0,-2.067319E0,3.5123627E0,5.038342E0,3.2945192E0,1.442767E0,4.335416E0,2.3730786E0,2.2407453E0,6.865086E-1,3.3081162E-1,-5.9131825E-1],"categories":[],"categories_nodes":[],"categories_segments":[],"categories_sizes":[],"default_left":[0,0,0,0,0,0,0,0,0,0,0,0,0,0,0,0,0,0,0,0,0,0,0,0,0,0,0,0,0,0,0,0,0,0,0,0,0,0,0,0,0,0,0,0,0,0,0,0,0,0,0,0,0,0,0,0,0],"id":7,"left_children":[1,3,5,7,9,11,13,15,17,19,21,23,25,27,29,31,33,35,37,39,41,43,45,47,-1,-1,-1,49,51,53,55,-1,-1,-1,-1,-1,-1,-1,-1,-1,-1,-1,-1,-1,-1,-1,-1,-1,-1,-1,-1,-1,-1,-1,-1,-1,-1],"loss_changes":[1.234459E6,1.624842E5,2.1455675E5,1.0284994E5,3.826125E4,1.635555E5,1.3099777E4,2.5644312E4,1.9778033E4,2.719704E4,3.0315195E3,2.3319719E4,6.1004375E3,2.8851328E3,2.9121504E3,1.4812406E4,9.323359E3,6.298027E3,2.9975156E3,2.064432E4,1.2982105E4,1.8247095E3,8.108926E2,3.4957344E3,0E0,0E0,0E0,2.669045E3,1.3963516E3,2.125604E3,4.2337585E2,0E0,0E0,0E0,0E0,0E0,0E0,0E0,0E0,0E0,0E0,0E0,0E0,0E0,0E0,0E0,0E0,0E0,0E0,0E0,0E0,0E0,0E0,0E0,0E0,0E0,0E0],"parents":[2147483647,0,0,1,1,2,2,3,3,4,4,5,5,6,6,7,7,8,8,9,9,10,10,11,11,12,12,13,13,14,14,15,15,16,16,17,17,18,18,19,19,20,20,21,21,22,22,23,23,27,27,28,28,29,29,30,30],"right_children":[2,4,6,8,10,12,14,16,18,20,22,24,26,28,30,32,34,36,38,40,42,44,46,48,-1,-1,-1,50,52,54,56,-1,-1,-1,-1,-1,-1,-1,-1,-1,-1,-1,-1,-1,-1,-1,-1,-1,-1,-1,-1,-1,-1,-1,-1,-1,-1],"split_conditions":[1.42E2,5.1E1,1.5636496E1,5.5841442E1,5E0,2.57E2,4E0,2.2538855E1,1.2020815E2,9.8E1,7E0,2E2,3.32E2,1.91E2,5E0,1.2E1,1.1E1,7E0,1.9091884E2,6.722351E1,2.9091808E1,1.41E2,9E0,1.61E2,7.2345147E0,1.0056501E1,1.3557375E1,5.0520622E1,4E1,2.3E1,2.8E1,-3.1802397E0,-2.1204586E0,-1.2105196E0,-2.5492256E0,2.2735658E-1,-1.3601257E0,1.8808466E0,4.2228537E0,-4.7019895E-2,3.2048905E0,2.3845067E0,5.557782E-1,-8.1634706E-1,3.1972638E-1,-1.2137508E0,-2.067319E0,3.5123627E0,5.038342E0,3.2945192E0,1.442767E0,4.335416E0,2.3730786E0,2.2407453E0,6.865086E-1,3.3081162E-1,-5.9131825E-1],"split_indices":[7,7,6,6,1,7,1,6,6,7,1,7,7,7,1,7,1,1,6,6,6,5,1,7,0,0,0,6,0,0,0,0,0,0,0,0,0,0,0,0,0,0,0,0,0,0,0,0,0,0,0,0,0,0,0,0,0],"split_type":[0,0,0,0,0,0,0,0,0,0,0,0,0,0,0,0,0,0,0,0,0,0,0,0,0,0,0,0,0,0,0,0,0,0,0,0,0,0,0,0,0,0,0,0,0,0,0,0,0,0,0,0,0,0,0,0,0],"sum_hessian":[2.232E3,1.885E3,3.47E2,1.242E3,6.43E2,2.26E2,1.21E2,1.044E3,1.98E2,4.7E2,1.73E2,1.61E2,6.5E1,6.6E1,5.5E1,6.43E2,4.01E2,1.58E2,4E1,2.97E2,1.73E2,1.12E2,6.1E1,1.05E2,5.6E1,4.1E1,2.4E1,3.6E1,3E1,3.7E1,1.8E1,1.97E2,4.46E2,3.39E2,6.2E1,1.28E2,3E1,3.3E1,7E0,2.77E2,2E1,1.13E2,6E1,9.6E1,1.6E1,4E1,2.1E1,3.5E1,7E1,1.5E1,2.1E1,2E1,1E1,1.6E1,2.1E1,9E0,9E0],"tree_param":{"num_deleted":"0","num_feature":"8","num_nodes":"57","size_leaf_vector":"1"}},{"base_weights":[1.690426E-1,-9.271094E0,4.788093E1,-1.53347225E1,1.5415831E0,3.1420881E1,7.937594E1,-1.8607224E1,6.7427497E0,5.6142273E0,-8.874442E0,4.3254307E1,1.1742369E1,9.45251E1,2.9901888E1,-2.2177727E1,-1.1674719E1,2.3002687E0,2.5176413E1,-1.6331403E0,1.1682874E1,-1.0504324E1,1.7476764E0,3.451164E0,5.110618E0,2.1215967E1,3.8648005E0,7.596743E0,1.10774975E1,3.5752937E1,1.7658312E1,-2.6672504E0,-1.8509539E0,-9.033319E-1,-1.9737977E0,-4.457589E-1,7.109271E-1,1.2896966E0,3.8288858E0,-5.263025E-1,1.9970337E0,1.6188444E0,3.5447237E-1,-8.8290644E-1,-1.9465601E0,8.333246E-1,-4.4923297E-1,2.8229024E0,1.3557323E0,1.3934951E0,-5.9431333E-2,5.1438713E-1,3.7093213E0,6.956259E-1,2.0452745E0],"categories":[],"categories_nodes":[],"categories_segments":[],"categories_sizes":[],"default_left":[0,0,0,0,0,0,0,0,0,0,0,0,0,0,0,0,0,0,0,0,0,0,0,0,0,0,0,0,0,0,0,0,0,0,0,0,0,0,0,0,0,0,0,0,0,0,0,0,0,0,0,0,0,0,0],"id":8,"left_children":[1,3,5,7,9,11,13,15,17,19,21,23,25,27,29,31,33,35,37,39,41,43,45,-1,-1,47,49,-1,-1,51,53,-1,-1,-1,-1,-1,-1,-1,-1,-1,-1,-1,-1,-1,-1,-1,-1,-1,-1,-1,-1,-1,-1,-1,-1],"loss_changes":[1.00620225E6,1.2230064E5,1.88799E5,8.646247E4,2.8514156E4,5.6310953E4,9.160931E4,2.5508469E4,1.2635223E4,2.1262246E4,3.2904756E3,8.670469E3,6.858494E3,2.0534438E4,1.5894355E3,1.0816844E4,7.4038945E3,4.1265083E3,4.3365977E3,1.7435514E4,9.586039E3,2.2901816E3,1.1058795E3,0E0,0E0,1.8731309E3,2.3432869E3,0E0,0E0,6.296875E2,2.1659937E2,0E0,0E0,0E0,0E0,0E0,0E0,0E0,0E0,0E0,0E0,0E0,0E0,0E0,0E0,0E0,0E0,0E0,0E0,0E0,0E0,0E0,0E0,0E0,0E0],"parents":[2147483647,0,0,1,1,2,2,3,3,4,4,5,5,6,6,7,7,8,8,9,9,10,10,11,11,12,12,13,13,14,14,15,15,16,16,17,17,18,18,19,19,20,20,21,21,22,22,25,25,26,26,29,29,30,30],"right_children":[2,4,6,8,10,12,14,16,18,20,22,24,26,28,30,32,34,36,38,40,42,44,46,-1,-1,48,50,-1,-1,52,54,-1,-1,-1,-1,-1,-1,-1,-1,-1,-1,-1,-1,-1,-1,-1,-1,-1,-1,-1,-1,-1,-1,-1,-1],"split_conditions":[1.37E2,4.7E1,2.24E2,6.490616E1,5E0,3.7554405E1,7.0710677E-1,2.6608269E1,1.33751E2,7.9E1,4.8449287E1,1.7E2,4E0,2.85E2,4E0,1.6E1,9E0,1.3E1,1.2E1,4.6776062E1,2.7764486E1,9E0,3E1,3.451164E0,5.110618E0,7.482146E1,5.6568542E1,7.596743E0,1.10774975E1,3.415E1,2.42E2,-2.6672504E0,-1.8509539E0,-9.033319E-1,-1.9737977E0,-4.457589E-1,7.109271E-1,1.2896966E0,3.8288858E0,-5.263025E-1,1.9970337E0,1.6188444E0,3.5447237E-1,-8.8290644E-1,-1.9465601E0,8.333246E-1,-4.4923297E-1,2.8229024E0,1.3557323E0,1.3934951E0,-5.9431333E-2,5.1438713E-1,3.7093213E0,6.956259E-1,2.0452745E0],"split_indices":[7,7,7,6,1,6,6,6,6,7,6,7,1,7,1,7,1,7,7,6,6,1,0,0,0,6,6,0,0,2,7,0,0,0,0,0,0,0,0,0,0,0,0,0,0,0,0,0,0,0,0,0,0,0,0],"split_type":[0,0,0,0,0,0,0,0,0,0,0,0,0,0,0,0,0,0,0,0,0,0,0,0,0,0,0,0,0,0,0,0,0,0,0,0,0,0,0,0,0,0,0,0,0,0,0,0,0,0,0,0,0,0,0],"sum_hessian":[2.232E3,1.864E3,3.68E2,1.194E3,6.7E2,2.43E2,1.25E2,1.04E3,1.54E2,4.82E2,1.88E2,1.51E2,9.2E1,9.5E1,3E1,6.85E2,3.55E2,1.25E2,2.9E1,2.2E2,2.62E2,1.63E2,2.5E1,7.4E1,7.7E1,4.1E1,5.1E1,4.7E1,4.8E1,1.9E1,1.1E1,3.05E2,3.8E2,2.69E2,8.6E1,5.2E1,7.3E1,1.6E1,1.3E1,1.89E2,3.1E1,1.68E2,9.4E1,1.39E2,2.4E1,1.2E1,1.3E1,2E1,2.1E1,1.5E1,3.6E1,1E0,1.8E1,3E0,8E0],"tree_param":{"num_deleted":"0","num_feature":"8","num_nodes":"55","size_leaf_vector":"1"}},{"base_weights":[1.6947009E-1,-9.250595E0,3.9238476E1,-1.4249795E1,-9.565672E-1,2.5407204E1,7.069028E1,-1.9461725E1,-2.635194E0,-2.155136E0,2.112443E1,3.5219166E1,8.8310585E0,8.382969E1,2.5177036E1,-2.3110804E1,-1.5874391E1,-6.08632E0,1.719309E1,2.4187492E-1,-1.0479771E1,3.0384277E1,9.532575E0,2.6354082E1,4.2934204E1,1.2885117E1,-4.709247E0,7.3750275E1,1.1192428E1,2.9854467E1,1.6404097E1,-2.6688492E0,-1.8087472E0,-1.4078845E0,-2.1226947E0,-1.2059598E0,-2.1585129E-1,8.1233925E-1,2.743593E0,-3.1676346E-1,6.44659E-1,-7.968897E-1,-1.8368806E0,3.6046555E0,-1.1830047E0,3.511885E-1,1.7631863E0,2.65976E0,2.2187881E-1,3.6839008E0,4.6545463E0,2.9383364E0,1.0868E0,-1.3891779E-1,-1.3996705E0,6.3856487E0,8.298781E0,1.8991979E0,3.6027915E0,1.7433814E0,2.023758E-1],"categories":[],"categories_nodes":[],"categories_segments":[],"categories_sizes":[],"default_left":[0,0,0,0,0,0,0,0,0,0,0,0,0,0,0,0,0,0,0,0,0,0,0,0,0,0,0,0,0,0,0,0,0,0,0,0,0,0,0,0,0,0,0,0,0,0,0,0,0,0,0,0,0,0,0,0,0,0,0,0,0],"id":9,"left_children":[1,3,5,7,9,11,13,15,17,19,21,23,25,27,29,31,33,35,37,39,41,43,45,47,49,51,53,55,-1,57,59,-1,-1,-1,-1,-1,-1,-1,-1,-1,-1,-1,-1,-1,-1,-1,-1,-1,-1,-1,-1,-1,-1,-1,-1,-1,-1,-1,-1,-1,-1],"loss_changes":[8.2217975E5,7.462066E4,1.8700194E5,6.792892E4,1.7989197E4,4.897028E4,7.682775E4,9.77825E3,2.3986682E4,1.2853066E4,3.4672168E3,1.18634375E4,6.318504E3,2.06295E4,7.8234375E2,6.382547E3,3.487789E3,6.9656104E3,4.6078975E3,1.0619093E4,2.7060244E3,4.9679863E3,7.670552E2,4.7582422E2,4.8645312E2,2.6092021E3,8.131013E2,1.8294375E3,0E0,5.898789E2,1.5721753E2,0E0,0E0,0E0,0E0,0E0,0E0,0E0,0E0,0E0,0E0,0E0,0E0,0E0,0E0,0E0,0E0,0E0,0E0,0E0,0E0,0E0,0E0,0E0,0E0,0E0,0E0,0E0,0E0,0E0,0E0],"parents":[2147483647,0,0,1,1,2,2,3,3,4,4,5,5,6,6,7,7,8,8,9,9,10,10,11,11,12,12,13,13,14,14,15,15,16,16,17,17,18,18,19,19,20,20,21,21,22,22,23,23,24,24,25,25,26,26,27,27,29,29,30,30],"right_children":[2,4,6,8,10,12,14,16,18,20,22,24,26,28,30,32,34,36,38,40,42,44,46,48,50,52,54,56,-1,58,60,-1,-1,-1,-1,-1,-1,-1,-1,-1,-1,-1,-1,-1,-1,-1,-1,-1,-1,-1,-1,-1,-1,-1,-1,-1,-1,-1,-1,-1,-1],"split_conditions":[1.21E2,4.3E1,2.2E2,3.6027767E1,7.482146E1,3.7554405E1,9.395371E1,1.30128145E1,1.06773125E2,6E0,4E0,1.59E2,5E0,3.32E2,4E0,2.1E1,1.3E1,1.1E1,1.5E1,8.5E1,9E0,1.1E2,2.5E1,1.4E2,1.82E2,8E0,1.23E2,2.64E2,1.1192428E1,2.16845E2,5.2E1,-2.6688492E0,-1.8087472E0,-1.4078845E0,-2.1226947E0,-1.2059598E0,-2.1585129E-1,8.1233925E-1,2.743593E0,-3.1676346E-1,6.44659E-1,-7.968897E-1,-1.8368806E0,3.6046555E0,-1.1830047E0,3.511885E-1,1.7631863E0,2.65976E0,2.2187881E-1,3.6839008E0,4.6545463E0,2.9383364E0,1.0868E0,-1.3891779E-1,-1.3996705E0,6.3856487E0,8.298781E0,1.8991979E0,3.6027915E0,1.7433814E0,2.023758E-1],"split_indices":[7,7,7,6,6,6,6,6,6,1,1,7,1,7,1,7,1,7,7,7,1,7,0,5,7,0,5,7,0,2,0,0,0,0,0,0,0,0,0,0,0,0,0,0,0,0,0,0,0,0,0,0,0,0,0,0,0,0,0,0,0],"split_type":[0,0,0,0,0,0,0,0,0,0,0,0,0,0,0,0,0,0,0,0,0,0,0,0,0,0,0,0,0,0,0,0,0,0,0,0,0,0,0,0,0,0,0,0,0,0,0,0,0,0,0,0,0,0,0,0,0,0,0,0,0],"sum_hessian":[2.232E3,1.799E3,4.33E2,1.122E3,6.77E2,3.02E2,1.31E2,7.74E2,3.48E2,6.43E2,3.4E1,1.89E2,1.13E2,1.01E2,3E1,3.81E2,3.93E2,2.97E2,5.1E1,5E2,1.43E2,1.8E1,1.6E1,9E1,9.9E1,8.7E1,2.6E1,7.7E1,2.4E1,1.8E1,1.2E1,2.2E2,1.61E2,2.97E2,9.6E1,1.17E2,1.8E2,2.8E1,2.3E1,3.23E2,1.77E2,1.1E2,3.3E1,1.6E1,2E0,1E1,6E0,8.9E1,1E0,4.1E1,5.8E1,8E0,7.9E1,2E1,6E0,4.1E1,3.6E1,8E0,1E1,1.1E1,1E0],"tree_param":{"num_deleted":"0","num_feature":"8","num_nodes":"61","size_leaf_vector":"1"}},{"base_weights":[1.7195314E-1,-8.32756E0,3.5422997E1,-1.3834489E1,-2.170205E0,2.2270119E1,6.2596916E1,-1.8410631E1,-3.7111483E0,-3.644687E0,1.9235834E1,3.1086166E1,7.021911E0,7.519183E1,2.5162777E1,-2.2057821E1,-1.491444E1,-6.314635E0,1.4754289E1,-1.6581148E0,-1.4111972E1,2.9508318E1,8.276354E0,2.3750341E1,3.7716103E1,1.4531599E1,1.0947025E0,6.334705E0,9.440903E0,2.9647799E1,1.5676827E1,-2.5475802E0,-1.8479614E0,-1.7832268E0,-1.2391288E0,-1.060616E0,-2.5297728E-1,1.1047175E0,3.6270378E0,-4.2913485E-1,5.440471E-1,-1.1637517E0,-2.1399398E0,3.3052194E0,-1.1041378E0,1.2683157E0,2.2159548E-1,1.8274472E0,2.5659542E0,3.7902076E0,1.0024261E0,4.2281394E0,1.2405926E0,5.1068014E-1,-4.2953077E-1,3.8962784E-1,3.0598028E0,1.6586956E0,1.9225693E-1],"categories":[],"categories_nodes":[],"categories_segments":[],"categories_sizes":[],"default_left":[0,0,0,0,0,0,0,0,0,0,0,0,0,0,0,0,0,0,0,0,0,0,0,0,0,0,0,0,0,0,0,0,0,0,0,0,0,0,0,0,0,0,0,0,0,0,0,0,0,0,0,0,0,0,0,0,0,0,0],"id":10,"left_children":[1,3,5,7,9,11,13,15,17,19,21,23,25,27,29,31,33,35,37,39,41,43,45,47,49,51,53,-1,-1,55,57,-1,-1,-1,-1,-1,-1,-1,-1,-1,-1,-1,-1,-1,-1,-1,-1,-1,-1,-1,-1,-1,-1,-1,-1,-1,-1,-1,-1],"loss_changes":[6.693391E5,6.100458E4,1.5372425E5,4.394122E4,2.693006E4,3.9303812E4,6.4586562E4,8.010375E3,1.4371301E4,1.6549434E4,5.94774E3,8.1505312E3,4.8358438E3,1.7919938E4,1.1093691E3,3.4184219E3,2.2600703E3,4.212548E3,2.5505303E3,1.2565836E4,2.0410781E3,4.388629E3,7.196902E2,4.8244922E2,1.14453125E2,2.306837E3,1.362701E3,0E0,0E0,4.6805664E2,1.433645E2,0E0,0E0,0E0,0E0,0E0,0E0,0E0,0E0,0E0,0E0,0E0,0E0,0E0,0E0,0E0,0E0,0E0,0E0,0E0,0E0,0E0,0E0,0E0,0E0,0E0,0E0,0E0,0E0],"parents":[2147483647,0,0,1,1,2,2,3,3,4,4,5,5,6,6,7,7,8,8,9,9,10,10,11,11,12,12,13,13,14,14,15,15,16,16,17,17,18,18,19,19,20,20,21,21,22,22,23,23,24,24,25,25,26,26,29,29,30,30],"right_children":[2,4,6,8,10,12,14,16,18,20,22,24,26,28,30,32,34,36,38,40,42,44,46,48,50,52,54,-1,-1,56,58,-1,-1,-1,-1,-1,-1,-1,-1,-1,-1,-1,-1,-1,-1,-1,-1,-1,-1,-1,-1,-1,-1,-1,-1,-1,-1,-1,-1],"split_conditions":[1.21E2,3.4E1,2.14E2,3.6431934E1,7.482146E1,4.0003334E1,7.0710677E-1,1.2503333E1,1.1721917E2,7E0,4E0,1.59E2,4E0,3.01E2,4E0,1.5E1,1.1E1,1.1E1,2.0293965E2,8.7E1,1.1E1,1.1E2,5E0,1.31E2,1.23E2,1.0129032E1,5E0,6.334705E0,9.440903E0,3E0,5.2E1,-2.5475802E0,-1.8479614E0,-1.7832268E0,-1.2391288E0,-1.060616E0,-2.5297728E-1,1.1047175E0,3.6270378E0,-4.2913485E-1,5.440471E-1,-1.1637517E0,-2.1399398E0,3.3052194E0,-1.1041378E0,1.2683157E0,2.2159548E-1,1.8274472E0,2.5659542E0,3.7902076E0,1.0024261E0,4.2281394E0,1.2405926E0,5.1068014E-1,-4.2953077E-1,3.8962784E-1,3.0598028E0,1.6586956E0,1.9225693E-1],"split_indices":[7,7,7,6,6,6,6,6,6,1,1,7,1,7,1,7,7,7,6,7,1,7,1,7,5,3,1,0,0,1,0,0,0,0,0,0,0,0,0,0,0,0,0,0,0,0,0,0,0,0,0,0,0,0,0,0,0,0,0],"split_type":[0,0,0,0,0,0,0,0,0,0,0,0,0,0,0,0,0,0,0,0,0,0,0,0,0,0,0,0,0,0,0,0,0,0,0,0,0,0,0,0,0,0,0,0,0,0,0,0,0,0,0,0,0,0,0,0,0,0,0],"sum_hessian":[2.232E3,1.799E3,4.33E2,9.49E2,8.5E2,2.93E2,1.4E2,6.53E2,2.96E2,7.96E2,5.4E1,1.85E2,1.08E2,1.04E2,3.6E1,3.17E2,3.36E2,2.6E2,3.6E1,6.7E2,1.26E2,2.7E1,2.7E1,9E1,9.5E1,4.7E1,6.1E1,6.7E1,3.7E1,2.3E1,1.3E1,1.59E2,1.58E2,1.53E2,1.83E2,1.21E2,1.39E2,3.2E1,4E0,4.89E2,1.81E2,9.6E1,3E1,2.5E1,2E0,1.5E1,1.2E1,2.6E1,6.4E1,9.4E1,1E0,2E0,4.5E1,3.5E1,2.6E1,1E0,2.2E1,1.2E1,1E0],"tree_param":{"num_deleted":"0","num_feature":"8","num_nodes":"59","size_leaf_vector":"1"}},{"base_weights":[1.6922948E-1,-4.8498764E0,4.879851E1,-9.490705E0,9.475358E0,5.7450485E1,1.9374704E1,-1.305298E1,8.133551E-1,1.5351334E1,-1.6825911E0,4.399266E1,7.8791306E1,2.3154455E1,1.0897854E1,-1.5744866E1,-7.2229314E0,5.248743E0,-8.131346E0,8.808663E0,2.1642355E1,2.1655297E0,-6.688368E0,3.717276E0,5.1338787E0,6.765846E0,9.211627E0,3.1417654E0,1.7594782E1,-3.5288544E0,1.4241352E1,-1.8915348E0,-1.2224298E0,-6.408784E-1,-1.5992068E0,-2.9657317E-2,1.1511977E0,-5.2357465E-1,-1.3548808E0,7.806179E-1,3.8524952E0,2.4480896E0,1.079089E0,9.7926134E-1,-2.8281665E-1,-5.643182E-1,-2.0192335E0,1.0897299E0,3.0389774E0,2.3965493E-1,-6.302839E-1,1.5055851E0,1.8264389E-1],"categories":[],"categories_nodes":[],"categories_segments":[],"categories_sizes":[],"default_left":[0,0,0,0,0,0,0,0,0,0,0,0,0,0,0,0,0,0,0,0,0,0,0,0,0,0,0,0,0,0,0,0,0,0,0,0,0,0,0,0,0,0,0,0,0,0,0,0,0,0,0,0,0],"id":11,"left_children":[1,3,5,7,9,11,13,15,17,19,21,23,25,27,29,31,33,35,37,39,41,43,45,-1,-1,-1,-1,-1,47,49,51,-1,-1,-1,-1,-1,-1,-1,-1,-1,-1,-1,-1,-1,-1,-1,-1,-1,-1,-1,-1,-1,-1],"loss_changes":[5.452573E5,1.3471384E5,5.2092906E4,5.6170656E4,3.2545496E4,4.2773062E4,1.3176465E3,1.7730172E4,1.5673929E4,1.3186383E4,3.3276912E3,3.1516719E3,2.816625E3,9.6325586E2,8.702621E2,8.4415625E3,2.4748242E3,9.17256E3,1.9840322E3,4.4954795E3,4.818211E3,3.7602544E3,9.446128E2,0E0,0E0,0E0,0E0,0E0,1.5541069E3,8.085298E1,1.1406836E2,0E0,0E0,0E0,0E0,0E0,0E0,0E0,0E0,0E0,0E0,0E0,0E0,0E0,0E0,0E0,0E0,0E0,0E0,0E0,0E0,0E0,0E0],"parents":[2147483647,0,0,1,1,2,2,3,3,4,4,5,5,6,6,7,7,8,8,9,9,10,10,11,11,12,12,13,13,14,14,15,15,16,16,17,17,18,18,19,19,20,20,21,21,22,22,28,28,29,29,30,30],"right_children":[2,4,6,8,10,12,14,16,18,20,22,24,26,28,30,32,34,36,38,40,42,44,46,-1,-1,-1,-1,-1,48,50,52,-1,-1,-1,-1,-1,-1,-1,-1,-1,-1,-1,-1,-1,-1,-1,-1,-1,-1,-1,-1,-1,-1],"split_conditions":[1.82E2,7.9E1,6.624306E1,4.0003334E1,4E0,2.64E2,4E0,4.1E1,6E0,1.21E2,4.5E1,2.14E2,3.32E2,1.0423491E2,2.14E2,1.4860662E1,9E0,2.8E1,8E0,8.555992E1,4.0003334E1,5E0,1.54E2,3.717276E0,5.1338787E0,6.765846E0,9.211627E0,3.1417654E0,2.85E2,1.270886E1,5.2E1,-1.8915348E0,-1.2224298E0,-6.408784E-1,-1.5992068E0,-2.9657317E-2,1.1511977E0,-5.2357465E-1,-1.3548808E0,7.806179E-1,3.8524952E0,2.4480896E0,1.079089E0,9.7926134E-1,-2.8281665E-1,-5.643182E-1,-2.0192335E0,1.0897299E0,3.0389774E0,2.3965493E-1,-6.302839E-1,1.5055851E0,1.8264389E-1],"split_indices":[7,7,6,6,1,7,1,7,1,7,0,7,7,6,7,6,1,7,1,6,6,1,0,0,0,0,0,0,7,3,0,0,0,0,0,0,0,0,0,0,0,0,0,0,0,0,0,0,0,0,0,0,0],"split_type":[0,0,0,0,0,0,0,0,0,0,0,0,0,0,0,0,0,0,0,0,0,0,0,0,0,0,0,0,0,0,0,0,0,0,0,0,0,0,0,0,0,0,0,0,0,0,0,0,0,0,0,0,0],"sum_hessian":[2.232E3,2.024E3,2.08E2,1.529E3,4.95E2,1.6E2,4.8E1,1.136E3,3.93E2,3.24E2,1.71E2,1E2,6E1,3.2E1,1.6E1,7.76E2,3.6E2,2.63E2,1.3E2,1.6E2,1.64E2,9.7E1,7.4E1,5.5E1,4.5E1,3.6E1,2.4E1,1.1E1,2.1E1,3E0,1.3E1,4.06E2,3.7E2,3.31E2,2.9E1,1.4E2,1.23E2,8.6E1,4.4E1,1.56E2,4E0,1.29E2,3.5E1,3.8E1,5.9E1,7E1,4E0,1.5E1,6E0,1E0,2E0,1.2E1,1E0],"tree_param":{"num_deleted":"0","num_feature":"8","num_nodes":"53","size_leaf_vector":"1"}},{"base_weights":[1.6733502E-1,-6.117084E0,3.1929596E1,-9.188373E0,3.365547E0,2.0972322E1,5.2895035E1,-1.1264692E1,6.216255E0,7.836322E0,-3.0154269E0,2.8654266E1,8.19138E0,6.220126E1,1.810177E1,-1.44796095E1,-7.5343633E0,3.3372712E0,2.255055E1,4.6574244E0,1.2834983E1,-4.6206703E0,8.771143E0,2.1933456E1,3.3292885E1,1.4862704E1,2.6454744E0,5.4347965E1,8.32731E0,1.3848301E1,2.5542617E0,-1.8815606E0,-1.0981134E0,-9.6361035E-1,-1.2639113E-1,5.324015E-1,-8.552896E-1,2.8739355E0,2.5308597E-1,3.0067897E-1,2.7643023E0,1.3961331E0,-1.2258978E0,-3.8496146E-1,-2.1694863E0,1.2285211E0,-3.2329178E-1,2.2077417E0,6.3599855E-1,2.927546E0,3.7184188E0,3.037755E0,1.1945089E0,1.1048952E0,-1.0599613E-1,4.6571918E0,6.1075473E0,2.398285E-1,1.4987286E0],"categories":[],"categories_nodes":[],"categories_segments":[],"categories_sizes":[],"default_left":[0,0,0,0,0,0,0,0,0,0,0,0,0,0,0,0,0,0,0,0,0,0,0,0,0,0,0,0,0,0,0,0,0,0,0,0,0,0,0,0,0,0,0,0,0,0,0,0,0,0,0,0,0,0,0,0,0,0,0],"id":12,"left_children":[1,3,5,7,9,11,13,15,17,19,21,23,25,27,29,31,33,35,37,39,41,43,45,47,49,51,53,55,-1,57,-1,-1,-1,-1,-1,-1,-1,-1,-1,-1,-1,-1,-1,-1,-1,-1,-1,-1,-1,-1,-1,-1,-1,-1,-1,-1,-1,-1,-1],"loss_changes":[4.4591853E5,5.4346992E4,8.365884E4,4.5136797E4,1.3060879E4,2.372182E4,3.9672062E4,1.4785844E4,7.82514E3,4.2146934E3,3.6164678E3,4.0084062E3,3.401545E3,1.1857156E4,5.3246094E2,9.8961875E3,7.5920254E3,3.4472065E3,3.0247139E3,6.2150605E3,3.110664E3,2.115065E3,1.009928E3,5.3164062E0,2.871172E2,1.5383242E3,1.6309159E3,1.0791094E3,0E0,2.2488477E2,0E0,0E0,0E0,0E0,0E0,0E0,0E0,0E0,0E0,0E0,0E0,0E0,0E0,0E0,0E0,0E0,0E0,0E0,0E0,0E0,0E0,0E0,0E0,0E0,0E0,0E0,0E0,0E0,0E0],"parents":[2147483647,0,0,1,1,2,2,3,3,4,4,5,5,6,6,7,7,8,8,9,9,10,10,11,11,12,12,13,13,14,14,15,15,16,16,17,17,18,18,19,19,20,20,21,21,22,22,23,23,24,24,25,25,26,26,27,27,29,29],"right_children":[2,4,6,8,10,12,14,16,18,20,22,24,26,28,30,32,34,36,38,40,42,44,46,48,50,52,54,56,-1,58,-1,-1,-1,-1,-1,-1,-1,-1,-1,-1,-1,-1,-1,-1,-1,-1,-1,-1,-1,-1,-1,-1,-1,-1,-1,-1,-1,-1,-1],"split_conditions":[1.37E2,6.6E1,2.24E2,6.490616E1,4E0,3.7554405E1,9.828784E1,2.4E1,1.4849243E2,1.07E2,5.6568542E1,1.65E2,4E0,3.32E2,2.91E2,1.5556349E1,3.0664856E1,7E0,4E0,7.482146E1,7.596271E1,1.29E2,5.8E1,4E0,1.91E2,1.0533334E1,5.6568542E1,2.64E2,8.32731E0,1.3E1,2.5542617E0,-1.8815606E0,-1.0981134E0,-9.6361035E-1,-1.2639113E-1,5.324015E-1,-8.552896E-1,2.8739355E0,2.5308597E-1,3.0067897E-1,2.7643023E0,1.3961331E0,-1.2258978E0,-3.8496146E-1,-2.1694863E0,1.2285211E0,-3.2329178E-1,2.2077417E0,6.3599855E-1,2.927546E0,3.7184188E0,3.037755E0,1.1945089E0,1.1048952E0,-1.0599613E-1,4.6571918E0,6.1075473E0,2.398285E-1,1.4987286E0],"split_indices":[7,7,7,6,1,6,6,7,6,7,6,7,1,7,7,6,6,1,1,6,6,0,0,1,7,3,6,7,0,5,0,0,0,0,0,0,0,0,0,0,0,0,0,0,0,0,0,0,0,0,0,0,0,0,0,0,0,0,0],"split_type":[0,0,0,0,0,0,0,0,0,0,0,0,0,0,0,0,0,0,0,0,0,0,0,0,0,0,0,0,0,0,0,0,0,0,0,0,0,0,0,0,0,0,0,0,0,0,0,0,0,0,0,0,0,0,0,0,0,0,0],"sum_hessian":[2.232E3,1.864E3,3.68E2,1.408E3,4.56E2,2.43E2,1.25E2,1.241E3,1.67E2,2.68E2,1.88E2,1.51E2,9.2E1,9.8E1,2.7E1,6.65E2,5.76E2,1.43E2,2.4E1,1.65E2,1.03E2,1.66E2,2.2E1,6.4E1,8.7E1,4.1E1,5.1E1,7.4E1,2.4E1,1.9E1,8E0,2.95E2,3.7E2,4.31E2,1.45E2,1.23E2,2E1,1.8E1,6E0,1.55E2,1E1,9.9E1,4E0,1.6E2,6E0,1.7E1,5E0,6.3E1,1E0,4.7E1,4E1,5E0,3.6E1,1.5E1,3.6E1,3.8E1,3.6E1,2E0,1.7E1],"tree_param":{"num_deleted":"0","num_feature":"8","num_nodes":"59","size_leaf_vector":"1"}},{"base_weights":[1.6780984E-1,-4.731492E0,3.3403954E1,-8.270432E0,4.5284324E0,4.2580452E1,1.2510385E1,-1.0799213E1,2.1495209E0,8.917318E0,-2.1786022E0,3.2745445E1,6.429333E1,1.7616213E1,5.512752E0,-1.4519388E1,-8.339538E0,7.684004E-2,1.8527906E1,4.8979955E0,1.5096443E1,1.6815722E0,-5.2164183E0,2.7683175E0,4.147854E0,5.6855974E0,7.890168E0,1.0238514E1,2.2045744E1,1.9613165E0,1.1714507E1,-2.0191753E0,-1.2201828E0,-7.2396463E-1,-1.5816495E0,-3.652614E-1,6.8144125E-1,7.9350144E-1,2.9297993E0,3.3967137E-1,2.800991E0,1.637558E0,-6.137565E-1,7.706198E-1,-3.894715E-1,-2.7901906E-1,-7.939426E-1,1.6017975E0,2.2793083E-1,2.8763282E0,1.6289233E0,4.2641202E-1,-4.8983103E-1,1.2509567E0,6.893692E-2],"categories":[],"categories_nodes":[],"categories_segments":[],"categories_sizes":[],"default_left":[0,0,0,0,0,0,0,0,0,0,0,0,0,0,0,0,0,0,0,0,0,0,0,0,0,0,0,0,0,0,0,0,0,0,0,0,0,0,0,0,0,0,0,0,0,0,0,0,0,0,0,0,0,0,0],"id":13,"left_children":[1,3,5,7,9,11,13,15,17,19,21,23,25,27,29,31,33,35,37,39,41,43,45,-1,-1,-1,-1,47,49,51,53,-1,-1,-1,-1,-1,-1,-1,-1,-1,-1,-1,-1,-1,-1,-1,-1,-1,-1,-1,-1,-1,-1,-1,-1],"loss_changes":[3.6376616E5,6.3841277E4,5.449378E4,3.715003E4,1.5885651E4,4.0390406E4,3.0827422E3,1.02555E4,9.367995E3,8.0225605E3,2.5182432E3,4.996828E3,2.1414688E3,1.4409521E3,8.360044E2,5.6693516E3,5.518824E3,6.2062466E3,3.3041963E3,6.80966E3,3.5771406E3,3.2215427E3,7.706438E2,0E0,0E0,0E0,0E0,9.294883E2,7.3022656E2,4.3159265E2,1.1409509E2,0E0,0E0,0E0,0E0,0E0,0E0,0E0,0E0,0E0,0E0,0E0,0E0,0E0,0E0,0E0,0E0,0E0,0E0,0E0,0E0,0E0,0E0,0E0,0E0],"parents":[2147483647,0,0,1,1,2,2,3,3,4,4,5,5,6,6,7,7,8,8,9,9,10,10,11,11,12,12,13,13,14,14,15,15,16,16,17,17,18,18,19,19,20,20,21,21,22,22,27,27,28,28,29,29,30,30],"right_children":[2,4,6,8,10,12,14,16,18,20,22,24,26,28,30,32,34,36,38,40,42,44,46,-1,-1,-1,-1,48,50,52,54,-1,-1,-1,-1,-1,-1,-1,-1,-1,-1,-1,-1,-1,-1,-1,-1,-1,-1,-1,-1,-1,-1,-1,-1],"split_conditions":[1.59E2,6.6E1,3.2556545E1,4.8449287E1,4E0,2.64E2,4E0,1.7E1,1.33751E2,1.15E2,5E0,2.07E2,3.41E2,1.91E2,2.14E2,8.712061E0,1.1E1,2.8E1,1.2E1,7.482146E1,7.0844315E1,4.5E1,3E1,2.7683175E0,4.147854E0,5.6855974E0,7.890168E0,8.640409E1,1.0423491E2,8.202438E1,9.86195E2,-2.0191753E0,-1.2201828E0,-7.2396463E-1,-1.5816495E0,-3.652614E-1,6.8144125E-1,7.9350144E-1,2.9297993E0,3.3967137E-1,2.800991E0,1.637558E0,-6.137565E-1,7.706198E-1,-3.894715E-1,-2.7901906E-1,-7.939426E-1,1.6017975E0,2.2793083E-1,2.8763282E0,1.6289233E0,4.2641202E-1,-4.8983103E-1,1.2509567E0,6.893692E-2],"split_indices":[7,7,6,6,1,7,1,7,6,7,1,7,7,7,7,6,1,7,7,6,6,0,0,0,0,0,0,6,6,6,2,0,0,0,0,0,0,0,0,0,0,0,0,0,0,0,0,0,0,0,0,0,0,0,0],"split_type":[0,0,0,0,0,0,0,0,0,0,0,0,0,0,0,0,0,0,0,0,0,0,0,0,0,0,0,0,0,0,0,0,0,0,0,0,0,0,0,0,0,0,0,0,0,0,0,0,0,0,0,0,0,0,0],"sum_hessian":[2.232E3,1.946E3,2.86E2,1.408E3,5.38E2,1.98E2,8.8E1,1.133E3,2.75E2,3.25E2,2.13E2,1.38E2,6E1,5E1,3.8E1,4.49E2,6.84E2,2.45E2,3E1,1.98E2,1.27E2,9.4E1,1.19E2,9E1,4.8E1,4.3E1,1.7E1,2E1,3E1,2.5E1,1.3E1,1.28E2,3.21E2,5.98E2,8.6E1,1.58E2,8.7E1,1.6E1,1.4E1,1.87E2,1.1E1,1.2E2,7E0,4.5E1,4.9E1,6.4E1,5.5E1,1.1E1,9E0,1.2E1,1.8E1,1.9E1,6E0,1.2E1,1E0],"tree_param":{"num_deleted":"0","num_feature":"8","num_nodes":"55","size_leaf_vector":"1"}},{"base_weights":[1.6448691E-1,-3.5407693E0,3.6063908E1,-6.9554963E0,6.999701E0,3.044295E1,6.1370995E1,-8.606059E0,5.710141E0,1.332088E1,9.247163E-1,3.5677696E1,1.1542084E1,6.4519114E0,1.9269287E1,-1.1814004E1,-5.4927106E0,1.3007572E1,1.2539423E0,8.573415E0,1.9078558E1,2.7612088E0,-1.9583092E1,2.7807126E0,4.280307E0,1.9614998E0,1.4350875E1,5.5279696E-1,2.2007072E0,-1.6439345E0,-9.400899E-1,-6.736453E-1,1.4890227E-1,8.903799E-1,2.7907302E0,3.281035E-1,-7.589838E-1,4.6755156E-1,1.0602117E0,1.6896311E0,2.169998E0,7.048895E-1,-4.4325534E-1,1.1877774E0,-2.1750023E0,8.3305436E-1,-6.720791E-2,1.4800568E0,6.548996E-2],"categories":[],"categories_nodes":[],"categories_segments":[],"categories_sizes":[],"default_left":[0,0,0,0,0,0,0,0,0,0,0,0,0,0,0,0,0,0,0,0,0,0,0,0,0,0,0,0,0,0,0,0,0,0,0,0,0,0,0,0,0,0,0,0,0,0,0,0,0],"id":14,"left_children":[1,3,5,7,9,11,13,15,17,19,21,23,25,-1,27,29,31,33,35,37,39,41,43,-1,-1,45,47,-1,-1,-1,-1,-1,-1,-1,-1,-1,-1,-1,-1,-1,-1,-1,-1,-1,-1,-1,-1,-1,-1],"loss_changes":[2.971537E5,7.293417E4,2.7861938E4,3.2034445E4,1.903461E4,1.6705047E4,3.6607812E3,1.3458125E4,5.7395176E3,6.4786836E3,9.620332E3,6.3806562E3,1.02133545E3,0E0,2.8828735E1,7.278961E3,5.9929473E3,3.8482422E3,2.0148176E3,1.0179658E3,2.5689453E2,7.24888E3,1.6899873E3,0E0,0E0,1.7333258E2,1.7507617E2,0E0,0E0,0E0,0E0,0E0,0E0,0E0,0E0,0E0,0E0,0E0,0E0,0E0,0E0,0E0,0E0,0E0,0E0,0E0,0E0,0E0,0E0],"parents":[2147483647,0,0,1,1,2,2,3,3,4,4,5,5,6,6,7,7,8,8,9,9,10,10,11,11,12,12,14,14,15,15,16,16,17,17,18,18,19,19,20,20,21,21,22,22,25,25,26,26],"right_children":[2,4,6,8,10,12,14,16,18,20,22,24,26,-1,28,30,32,34,36,38,40,42,44,-1,-1,46,48,-1,-1,-1,-1,-1,-1,-1,-1,-1,-1,-1,-1,-1,-1,-1,-1,-1,-1,-1,-1,-1,-1],"split_conditions":[1.82E2,7.9E1,3.15E2,6.490616E1,2.2691774E1,9.395371E1,3E0,2.4E1,4E0,1.26E2,1.38E2,2.2E2,2.14E2,6.4519114E0,2.3E1,1.1532562E1,4.0003334E1,1.569777E2,7E0,9.3E1,1.55E2,5E0,2.6465818E1,2.7807126E0,4.280307E0,1.1574074E1,9.86195E2,5.5279696E-1,2.2007072E0,-1.6439345E0,-9.400899E-1,-6.736453E-1,1.4890227E-1,8.903799E-1,2.7907302E0,3.281035E-1,-7.589838E-1,4.6755156E-1,1.0602117E0,1.6896311E0,2.169998E0,7.048895E-1,-4.4325534E-1,1.1877774E0,-2.1750023E0,8.3305436E-1,-6.720791E-2,1.4800568E0,6.548996E-2],"split_indices":[7,7,7,6,6,6,1,7,1,7,0,7,7,0,0,6,6,6,1,7,7,1,6,0,0,3,2,0,0,0,0,0,0,0,0,0,0,0,0,0,0,0,0,0,0,0,0,0,0],"split_type":[0,0,0,0,0,0,0,0,0,0,0,0,0,0,0,0,0,0,0,0,0,0,0,0,0,0,0,0,0,0,0,0,0,0,0,0,0,0,0,0,0,0,0,0,0,0,0,0,0],"sum_hessian":[2.232E3,2.024E3,2.08E2,1.529E3,4.95E2,1.72E2,3.6E1,1.353E3,1.76E2,2.42E2,2.53E2,1.34E2,3.8E1,3.3E1,3E0,6.65E2,6.88E2,6.6E1,1.1E2,1.34E2,1.08E2,2.33E2,2E1,6.6E1,6.8E1,9E0,2.9E1,1E0,2E0,2.26E2,4.39E2,5.84E2,1.04E2,5.3E1,1.3E1,9E1,2E1,4.7E1,8.7E1,6.3E1,4.5E1,1.46E2,8.7E1,1E0,1.9E1,2E0,7E0,2.8E1,1E0],"tree_param":{"num_deleted":"0","num_feature":"8","num_nodes":"49","size_leaf_vector":"1"}},{"base_weights":[1.5850908E-1,-4.4769344E0,2.358654E1,-7.5497646E0,1.0022155E0,1.7807734E1,4.5631046E1,-9.217742E0,4.7854095E0,3.261367E0,-4.776475E0,2.3738962E1,7.373035E0,5.2701614E1,1.5822565E1,-1.1405466E1,-5.906466E0,2.9189985E0,2.0517515E1,2.7590055E0,2.6747171E1,-3.0588217E0,-9.126325E0,1.8528234E1,3.1105576E1,1.2793625E1,2.4795337E0,4.6326895E0,6.5356393E0,6.513115E0,1.946203E1,-1.6674461E0,-1.0076138E0,-4.662625E-1,-1.3610808E0,-4.3451563E-2,8.2262415E-1,2.734516E0,1.3931946E-1,5.593736E-2,7.282381E-1,3.7101862E-1,2.8894594E0,-1.8313089E-1,-1.222743E0,-1.1237774E0,-1.7651145E-1,1.5367291E0,2.0658827E0,2.6080902E0,3.3987443E0,2.3231661E0,9.342373E-1,1.0631161E0,1.2191018E-2,1.0965139E0,1.5458183E-1,2.2724833E0,1.1001705E0],"categories":[],"categories_nodes":[],"categories_segments":[],"categories_sizes":[],"default_left":[0,0,0,0,0,0,0,0,0,0,0,0,0,0,0,0,0,0,0,0,0,0,0,0,0,0,0,0,0,0,0,0,0,0,0,0,0,0,0,0,0,0,0,0,0,0,0,0,0,0,0,0,0,0,0,0,0,0,0],"id":15,"left_children":[1,3,5,7,9,11,13,15,17,19,21,23,25,27,29,31,33,35,37,39,41,43,45,47,49,51,53,-1,-1,55,57,-1,-1,-1,-1,-1,-1,-1,-1,-1,-1,-1,-1,-1,-1,-1,-1,-1,-1,-1,-1,-1,-1,-1,-1,-1,-1,-1,-1],"loss_changes":[2.4260784E5,3.1407637E4,4.619467E4,2.4630984E4,8.775441E3,1.8020805E4,1.5184094E4,7.5607344E3,4.138957E3,5.6248154E3,1.3842046E3,6.6017344E3,2.8330493E3,1.8931562E3,4.1534424E2,4.2656562E3,3.9709717E3,2.2995054E3,1.9205142E3,4.7121143E3,3.8749707E2,1.5194856E3,8.039331E2,4.368125E2,2.1408594E2,1.6202002E3,1.1133751E3,0E0,0E0,1.1573703E2,5.363623E1,0E0,0E0,0E0,0E0,0E0,0E0,0E0,0E0,0E0,0E0,0E0,0E0,0E0,0E0,0E0,0E0,0E0,0E0,0E0,0E0,0E0,0E0,0E0,0E0,0E0,0E0,0E0,0E0],"parents":[2147483647,0,0,1,1,2,2,3,3,4,4,5,5,6,6,7,7,8,8,9,9,10,10,11,11,12,12,13,13,14,14,15,15,16,16,17,17,18,18,19,19,20,20,21,21,22,22,23,23,24,24,25,25,26,26,29,29,30,30],"right_children":[2,4,6,8,10,12,14,16,18,20,22,24,26,28,30,32,34,36,38,40,42,44,46,48,50,52,54,-1,-1,56,58,-1,-1,-1,-1,-1,-1,-1,-1,-1,-1,-1,-1,-1,-1,-1,-1,-1,-1,-1,-1,-1,-1,-1,-1,-1,-1,-1,-1],"split_conditions":[1.37E2,4.7E1,2.64E2,6.835203E1,5E0,3.7554405E1,7.0710677E-1,2.351712E1,1.6334166E2,1.0323759E2,4.5E1,1.91E2,4E0,3.41E2,2.85E2,7E0,1.1E1,2.2E1,4E0,9.8E1,4.8E1,1E1,4.205552E1,1.59E2,2.14E2,1.1142858E1,5.5154327E1,4.6326895E0,6.5356393E0,1.2045455E1,4E0,-1.6674461E0,-1.0076138E0,-4.662625E-1,-1.3610808E0,-4.3451563E-2,8.2262415E-1,2.734516E0,1.3931946E-1,5.593736E-2,7.282381E-1,3.7101862E-1,2.8894594E0,-1.8313089E-1,-1.222743E0,-1.1237774E0,-1.7651145E-1,1.5367291E0,2.0658827E0,2.6080902E0,3.3987443E0,2.3231661E0,9.342373E-1,1.0631161E0,1.2191018E-2,1.0965139E0,1.5458183E-1,2.2724833E0,1.1001705E0],"split_indices":[7,7,7,6,1,6,6,6,6,6,0,7,1,7,7,7,1,7,1,7,7,1,6,7,7,3,6,0,0,3,1,0,0,0,0,0,0,0,0,0,0,0,0,0,0,0,0,0,0,0,0,0,0,0,0,0,0,0,0],"split_type":[0,0,0,0,0,0,0,0,0,0,0,0,0,0,0,0,0,0,0,0,0,0,0,0,0,0,0,0,0,0,0,0,0,0,0,0,0,0,0,0,0,0,0,0,0,0,0,0,0,0,0,0,0,0,0,0,0,0,0],"sum_hessian":[2.232E3,1.864E3,3.68E2,1.194E3,6.7E2,2.93E2,7.5E1,1.052E3,1.42E2,4.82E2,1.88E2,1.86E2,1.07E2,6E1,1.5E1,6.32E2,4.2E2,1.28E2,1.4E1,4.73E2,9E0,1.36E2,5.2E1,1.11E2,7.5E1,5E1,5.7E1,4.3E1,1.7E1,5E0,1E1,1.25E2,5.07E2,3.63E2,5.7E1,7.9E1,4.9E1,1E1,4E0,3.19E2,1.54E2,1E0,8E0,1.21E2,1.5E1,4E1,1.2E1,4.8E1,6.3E1,3.1E1,4.4E1,1.1E1,3.9E1,1.2E1,4.5E1,2E0,3E0,6E0,4E0],"tree_param":{"num_deleted":"0","num_feature":"8","num_nodes":"59","size_leaf_vector":"1"}},{"base_weights":[1.5619259E-1,-2.8694232E0,2.9470621E1,-5.6502934E0,5.71445E0,2.4840313E1,5.0323936E1,-7.896364E0,8.457289E-1,1.1104058E1,5.357525E-1,2.9092327E1,9.484874E0,5.2809057E0,1.661945E1,-1.2749714E1,-6.549032E0,5.401909E0,-3.5116398E0,7.329344E0,1.5677291E1,2.2377775E0,-1.7514591E1,2.2776182E0,3.480377E1,1.1388428E0,1.1950722E1,4.7014847E-1,1.9024943E0,-1.8702601E0,-1.0937613E0,-5.64505E-1,-1.1129347E0,-2.3497634E-1,9.1765636E-1,-7.451331E-2,-7.159952E-1,4.2170665E-1,8.943662E-1,1.5914634E0,5.4683477E-1,5.806114E-1,-3.707846E-1,1.1255916E0,-1.9420613E0,2.936135E0,3.8237388E0,6.6893744E-1,-1.0849619E-1,1.7916037E0,1.0041018E0],"categories":[],"categories_nodes":[],"categories_segments":[],"categories_sizes":[],"default_left":[0,0,0,0,0,0,0,0,0,0,0,0,0,0,0,0,0,0,0,0,0,0,0,0,0,0,0,0,0,0,0,0,0,0,0,0,0,0,0,0,0,0,0,0,0,0,0,0,0,0,0],"id":16,"left_children":[1,3,5,7,9,11,13,15,17,19,21,23,25,-1,27,29,31,33,35,37,39,41,43,-1,45,47,49,-1,-1,-1,-1,-1,-1,-1,-1,-1,-1,-1,-1,-1,-1,-1,-1,-1,-1,-1,-1,-1,-1,-1,-1],"loss_changes":[1.9813872E5,4.8370336E4,1.893039E4,2.2330188E4,1.3837982E4,1.1019492E4,2.2214531E3,7.351422E3,7.841034E3,4.079918E3,7.842616E3,4.0773281E3,7.8901196E2,0E0,2.522876E1,2.4490977E3,3.6305234E3,5.6687217E3,2.0334668E3,6.4055176E2,1.7708594E2,4.964853E3,1.4250142E3,0E0,1.6671094E2,1.3069069E2,1.6186426E2,0E0,0E0,0E0,0E0,0E0,0E0,0E0,0E0,0E0,0E0,0E0,0E0,0E0,0E0,0E0,0E0,0E0,0E0,0E0,0E0,0E0,0E0,0E0,0E0],"parents":[2147483647,0,0,1,1,2,2,3,3,4,4,5,5,6,6,7,7,8,8,9,9,10,10,11,11,12,12,14,14,15,15,16,16,17,17,18,18,19,19,20,20,21,21,22,22,24,24,25,25,26,26],"right_children":[2,4,6,8,10,12,14,16,18,20,22,24,26,-1,28,30,32,34,36,38,40,42,44,-1,46,48,50,-1,-1,-1,-1,-1,-1,-1,-1,-1,-1,-1,-1,-1,-1,-1,-1,-1,-1,-1,-1,-1,-1,-1,-1],"split_conditions":[1.82E2,7.9E1,3.15E2,4.0003334E1,2.2691774E1,9.395371E1,3E0,9E0,5E0,1.26E2,1.27E2,2.2E2,2.14E2,5.2809057E0,2.3E1,6.1821694E0,1.1E1,1.3E1,7E0,9.3E1,1.850045E1,5E0,2.6465818E1,2.2776182E0,2.5E2,1.1574074E1,1.0423491E2,4.7014847E-1,1.9024943E0,-1.8702601E0,-1.0937613E0,-5.64505E-1,-1.1129347E0,-2.3497634E-1,9.1765636E-1,-7.451331E-2,-7.159952E-1,4.2170665E-1,8.943662E-1,1.5914634E0,5.4683477E-1,5.806114E-1,-3.707846E-1,1.1255916E0,-1.9420613E0,2.936135E0,3.8237388E0,6.6893744E-1,-1.0849619E-1,1.7916037E0,1.0041018E0],"split_indices":[7,7,7,6,6,6,1,7,1,7,0,7,7,0,0,6,1,7,1,7,6,1,6,0,7,3,6,0,0,0,0,0,0,0,0,0,0,0,0,0,0,0,0,0,0,0,0,0,0,0,0],"split_type":[0,0,0,0,0,0,0,0,0,0,0,0,0,0,0,0,0,0,0,0,0,0,0,0,0,0,0,0,0,0,0,0,0,0,0,0,0,0,0,0,0,0,0,0,0,0,0,0,0,0,0],"sum_hessian":[2.232E3,2.024E3,2.08E2,1.529E3,4.95E2,1.72E2,3.6E1,1.136E3,3.93E2,2.42E2,2.53E2,1.34E2,3.8E1,3.3E1,3E0,2.45E2,8.91E2,1.92E2,2.01E2,1.34E2,1.08E2,2.32E2,2.1E1,6.6E1,6.8E1,9E0,2.9E1,1E0,2E0,5.5E1,1.9E2,7.46E2,1.45E2,6.3E1,1.29E2,1.15E2,8.6E1,4.7E1,8.7E1,1.05E2,3E0,1.45E2,8.7E1,1E0,2E1,3E1,3.8E1,2E0,7E0,5E0,2.4E1],"tree_param":{"num_deleted":"0","num_feature":"8","num_nodes":"51","size_leaf_vector":"1"}},{"base_weights":[1.4869972E-1,-3.639053E0,1.9292358E1,-6.1764135E0,8.8521624E-1,1.5203901E1,4.0516388E1,-7.3222585E0,7.017399E0,2.739556E0,-3.8583357E0,1.975705E1,4.9551306E0,4.5014774E1,1.6794811E1,-9.651895E0,-4.7709618E0,4.860839E0,1.8338768E1,2.2914162E0,2.3707428E1,-3.4629967E0,-2.127702E0,1.5113161E1,2.725295E1,9.502203E0,6.675318E-1,3.844345E0,5.419631E0,1.7682302E1,3.9599457E-1,-1.475062E0,-8.735448E-1,-8.48306E-1,-2.5651118E-1,7.2314686E-1,3.0642645E-3,2.4444141E0,1.2391937E-1,1.9155883E0,1.9238117E-1,7.210729E-1,2.6930263E0,-1.5118125E-1,-6.6747904E-1,1.2464848E0,1.7773424E0,2.168034E0,2.9218957E0,1.9710045E0,5.83564E-1,-1.089138E0,2.1607044E-1,2.1616278E0,9.425074E-1],"categories":[],"categories_nodes":[],"categories_segments":[],"categories_sizes":[],"default_left":[0,0,0,0,0,0,0,0,0,0,0,0,0,0,0,0,0,0,0,0,0,0,0,0,0,0,0,0,0,0,0,0,0,0,0,0,0,0,0,0,0,0,0,0,0,0,0,0,0,0,0,0,0,0,0],"id":17,"left_children":[1,3,5,7,9,11,13,15,17,19,21,23,25,27,29,31,33,35,37,39,41,43,-1,45,47,49,51,-1,-1,53,-1,-1,-1,-1,-1,-1,-1,-1,-1,-1,-1,-1,-1,-1,-1,-1,-1,-1,-1,-1,-1,-1,-1,-1,-1],"loss_changes":[1.6198825E5,2.1415113E4,3.1403438E4,1.8117469E4,5.9127915E3,1.4414656E4,5.5398047E3,6.4919062E3,2.2547183E3,4.4842046E3,1.2278259E3,7.072297E3,1.8847712E3,8.7291406E2,5.5278076E1,2.5532812E3,4.29349E3,9.387283E2,1.5356982E3,2.901688E3,3.374746E2,1.1555342E3,0E0,7.295625E2,2.5394531E2,1.644081E3,9.037651E2,0E0,0E0,1.2110254E2,0E0,0E0,0E0,0E0,0E0,0E0,0E0,0E0,0E0,0E0,0E0,0E0,0E0,0E0,0E0,0E0,0E0,0E0,0E0,0E0,0E0,0E0,0E0,0E0,0E0],"parents":[2147483647,0,0,1,1,2,2,3,3,4,4,5,5,6,6,7,7,8,8,9,9,10,10,11,11,12,12,13,13,14,14,15,15,16,16,17,17,18,18,19,19,20,20,21,21,23,23,24,24,25,25,26,26,29,29],"right_children":[2,4,6,8,10,12,14,16,18,20,22,24,26,28,30,32,34,36,38,40,42,44,-1,46,48,50,52,-1,-1,54,-1,-1,-1,-1,-1,-1,-1,-1,-1,-1,-1,-1,-1,-1,-1,-1,-1,-1,-1,-1,-1,-1,-1,-1,-1],"split_conditions":[1.37E2,4.7E1,2.85E2,8.391861E1,5E0,5.1618793E1,3E0,2.066052E1,1.6334166E2,1.0323759E2,1.85E2,1.95E2,4E0,3.41E2,6.1E1,5E0,1.1E1,5E0,4E0,3E0,5.3E1,7E0,-2.127702E0,1.63E2,2.14E2,1.1142858E1,1.41E2,3.844345E0,5.419631E0,4E0,3.9599457E-1,-1.475062E0,-8.735448E-1,-8.48306E-1,-2.5651118E-1,7.2314686E-1,3.0642645E-3,2.4444141E0,1.2391937E-1,1.9155883E0,1.9238117E-1,7.210729E-1,2.6930263E0,-1.5118125E-1,-6.6747904E-1,1.2464848E0,1.7773424E0,2.168034E0,2.9218957E0,1.9710045E0,5.83564E-1,-1.089138E0,2.1607044E-1,2.1616278E0,9.425074E-1],"split_indices":[7,7,7,6,1,6,1,6,6,6,0,7,1,7,0,7,7,1,1,5,7,1,0,7,7,3,7,0,0,1,0,0,0,0,0,0,0,0,0,0,0,0,0,0,0,0,0,0,0,0,0,0,0,0,0],"split_type":[0,0,0,0,0,0,0,0,0,0,0,0,0,0,0,0,0,0,0,0,0,0,0,0,0,0,0,0,0,0,0,0,0,0,0,0,0,0,0,0,0,0,0,0,0,0,0,0,0,0,0,0,0,0,0],"sum_hessian":[2.232E3,1.864E3,3.68E2,1.194E3,6.7E2,3.1E2,5.8E1,1.099E3,9.5E1,4.82E2,1.88E2,2.14E2,9.6E1,4.8E1,1E1,5.73E2,5.26E2,8.1E1,1.4E1,4.73E2,9E0,1.85E2,3E0,1.34E2,8E1,4.6E1,5E1,3.1E1,1.7E1,9E0,1E0,8.5E1,4.88E2,1.95E2,3.31E2,5.4E1,2.7E1,1E1,4E0,9E0,4.64E2,2E0,7E0,1.16E2,6.9E1,7E1,6.4E1,2.4E1,5.6E1,1.1E1,3.5E1,5E0,4.5E1,5E0,4E0],"tree_param":{"num_deleted":"0","num_feature":"8","num_nodes":"55","size_leaf_vector":"1"}},{"base_weights":[1.4501481E-1,-2.5125751E0,2.243243E1,-4.736722E0,3.994385E0,1.7637407E1,3.66811E1,-6.9523926E0,3.2485512E-1,8.2257E0,-1.0531201E0,2.1543198E1,6.126484E0,4.070237E1,1.5433527E1,-1.0866143E1,-5.8456264E0,2.6480002E0,-6.2373433E0,3.2451668E0,1.0303437E1,5.4767907E-1,-2.0204205E1,1.7547852E1,2.617833E0,1.8340573E0,8.497724E0,3.471925E0,4.9077783E0,1.6224491E1,3.7619478E-1,-1.5803584E0,-9.271385E-1,-5.304631E-1,-1.1570731E0,-3.1276664E-1,5.435116E-1,-4.8840785E-1,-1.1982008E0,4.2922708E-1,-5.8412725E-1,8.262151E-1,1.2691568E0,3.3582895E0,-7.52718E-3,-2.5043347E0,-9.022217E-1,1.7837384E0,4.6532822E-1,-2.3547636E-1,5.4205906E-1,1.3091538E0,5.1491195E-1,1.9814926E0,8.671069E-1],"categories":[],"categories_nodes":[],"categories_segments":[],"categories_sizes":[],"default_left":[0,0,0,0,0,0,0,0,0,0,0,0,0,0,0,0,0,0,0,0,0,0,0,0,0,0,0,0,0,0,0,0,0,0,0,0,0,0,0,0,0,0,0,0,0,0,0,0,0,0,0,0,0,0,0],"id":18,"left_children":[1,3,5,7,9,11,13,15,17,19,21,23,25,27,29,31,33,35,37,39,41,43,45,47,-1,49,51,-1,-1,53,-1,-1,-1,-1,-1,-1,-1,-1,-1,-1,-1,-1,-1,-1,-1,-1,-1,-1,-1,-1,-1,-1,-1,-1,-1],"loss_changes":[1.3231877E5,2.8905898E4,1.5613844E4,1.668986E4,1.0879676E4,7.9606836E3,4.4129062E3,4.4196953E3,6.9377188E3,2.8330234E3,7.154156E3,2.022168E3,4.6279822E2,7.515E2,4.0513916E1,1.6408828E3,2.4443008E3,5.425743E3,8.665918E2,8.147712E2,8.457383E2,4.44766E3,7.4805566E2,1.970039E2,0E0,2.831844E2,3.9407617E2,0E0,0E0,9.938428E1,0E0,0E0,0E0,0E0,0E0,0E0,0E0,0E0,0E0,0E0,0E0,0E0,0E0,0E0,0E0,0E0,0E0,0E0,0E0,0E0,0E0,0E0,0E0,0E0,0E0],"parents":[2147483647,0,0,1,1,2,2,3,3,4,4,5,5,6,6,7,7,8,8,9,9,10,10,11,11,12,12,13,13,14,14,15,15,16,16,17,17,18,18,19,19,20,20,21,21,22,22,23,23,25,25,26,26,29,29],"right_children":[2,4,6,8,10,12,14,16,18,20,22,24,26,28,30,32,34,36,38,40,42,44,46,48,-1,50,52,-1,-1,54,-1,-1,-1,-1,-1,-1,-1,-1,-1,-1,-1,-1,-1,-1,-1,-1,-1,-1,-1,-1,-1,-1,-1,-1,-1],"split_conditions":[1.73E2,7.4E1,2.85E2,3.4818577E1,2.7764486E1,7.0844315E1,3E0,9E0,7E0,9.3E1,1.4E2,2.14E2,2E2,3.41E2,6.1E1,5.879231E0,1.5E1,1.3E1,1E1,7E0,1.31E2,3E0,1E2,6.8691826E1,2.617833E0,2.0716E2,1.1313487E2,3.471925E0,4.9077783E0,4E0,3.7619478E-1,-1.5803584E0,-9.271385E-1,-5.304631E-1,-1.1570731E0,-3.1276664E-1,5.435116E-1,-4.8840785E-1,-1.1982008E0,4.2922708E-1,-5.8412725E-1,8.262151E-1,1.2691568E0,3.3582895E0,-7.52718E-3,-2.5043347E0,-9.022217E-1,1.7837384E0,4.6532822E-1,-2.3547636E-1,5.4205906E-1,1.3091538E0,5.1491195E-1,1.9814926E0,8.671069E-1],"split_indices":[7,7,7,6,6,6,1,7,1,7,0,7,7,7,0,6,1,7,1,1,7,5,7,6,0,2,6,0,0,1,0,0,0,0,0,0,0,0,0,0,0,0,0,0,0,0,0,0,0,0,0,0,0,0,0],"split_type":[0,0,0,0,0,0,0,0,0,0,0,0,0,0,0,0,0,0,0,0,0,0,0,0,0,0,0,0,0,0,0,0,0,0,0,0,0,0,0,0,0,0,0,0,0,0,0,0,0,0,0,0,0,0,0],"sum_hessian":[2.232E3,1.995E3,2.37E2,1.487E3,5.08E2,1.79E2,5.8E1,1.034E3,4.53E2,2.76E2,2.32E2,1.33E2,4.6E1,4.8E1,1E1,2.26E2,8.08E2,3.35E2,1.18E2,8.2E1,1.94E2,2.15E2,1.7E1,7.4E1,5.9E1,1.7E1,2.9E1,3.1E1,1.7E1,9E0,1E0,5.3E1,1.73E2,7.4E2,6.8E1,1.09E2,2.26E2,9.7E1,2.1E1,7.4E1,8E0,1.07E2,8.7E1,3E0,2.12E2,1.1E1,6E0,7.2E1,2E0,8E0,9E0,1.1E1,1.8E1,5E0,4E0],"tree_param":{"num_deleted":"0","num_feature":"8","num_nodes":"55","size_leaf_vector":"1"}},{"base_weights":[1.3715792E-1,-3.2837102E0,1.4324774E1,-4.0183825E0,7.5157833E0,1.0100849E1,2.8331675E1,-6.2570643E0,-4.7621676E-1,1.0045557E1,1.3239034E-2,1.4228857E1,4.1048603E0,3.2930878E1,1.0528554E1,-9.108991E0,-4.576554E0,1.451626E-1,-7.82596E0,5.3368278E0,1.5327175E1,-3.8989227E0,4.7627754E0,1.1853067E1,1.9495621E0,2.1959572E1,2.837189E0,2.8098202E0,4.224553E0,6.3009543E0,1.418334E1,-1.2796783E0,-8.269607E-1,-7.558491E-1,-3.1625867E-1,1.7443794E0,-8.688799E-3,-1.3241926E-1,-8.8302374E-1,3.0725694E-1,1.4555634E0,3.952557E-1,1.8047312E0,-2.0284286E-1,-9.470922E-1,7.1630913E-1,-6.4260787E-1,7.7144617E-1,1.2444061E0,1.1220975E0,3.9696438E0,5.0645304E-1,-1.2039571E-1,8.466627E-1,-1.4704895E-2,1.6589972E0,7.977387E-1],"categories":[],"categories_nodes":[],"categories_segments":[],"categories_sizes":[],"default_left":[0,0,0,0,0,0,0,0,0,0,0,0,0,0,0,0,0,0,0,0,0,0,0,0,0,0,0,0,0,0,0,0,0,0,0,0,0,0,0,0,0,0,0,0,0,0,0,0,0,0,0,0,0,0,0,0,0],"id":19,"left_children":[1,3,5,7,9,11,13,15,17,19,21,23,25,27,29,31,33,35,37,39,41,43,45,47,-1,49,51,-1,-1,53,55,-1,-1,-1,-1,-1,-1,-1,-1,-1,-1,-1,-1,-1,-1,-1,-1,-1,-1,-1,-1,-1,-1,-1,-1,-1,-1],"loss_changes":[1.08423375E5,1.431157E4,2.5391047E4,1.3366635E4,2.1825361E3,8.23334E3,7.841297E3,4.90916E3,2.98794E3,2.056997E3,5.759983E2,2.2464375E3,3.061175E3,2.3691406E3,2.5055273E2,1.0766465E3,2.725165E3,2.426067E3,3.2131543E2,9.363435E2,1.1662881E3,1.5796957E2,4.220255E2,2.4397852E2,0E0,1.2687891E3,1.176229E3,0E0,0E0,1.6881625E2,3.1945312E1,0E0,0E0,0E0,0E0,0E0,0E0,0E0,0E0,0E0,0E0,0E0,0E0,0E0,0E0,0E0,0E0,0E0,0E0,0E0,0E0,0E0,0E0,0E0,0E0,0E0,0E0],"parents":[2147483647,0,0,1,1,2,2,3,3,4,4,5,5,6,6,7,7,8,8,9,9,10,10,11,11,12,12,13,13,14,14,15,15,16,16,17,17,18,18,19,19,20,20,21,21,22,22,23,23,25,25,26,26,29,29,30,30],"right_children":[2,4,6,8,10,12,14,16,18,20,22,24,26,28,30,32,34,36,38,40,42,44,46,48,-1,50,52,-1,-1,54,56,-1,-1,-1,-1,-1,-1,-1,-1,-1,-1,-1,-1,-1,-1,-1,-1,-1,-1,-1,-1,-1,-1,-1,-1,-1,-1],"split_conditions":[1.21E2,8.391861E1,2.42E2,4.3E1,5E0,1.850045E1,9.828784E1,1.30128145E1,8E0,2.3E1,2.8067667E2,1.91E2,4E0,3.32E2,2.85E2,6E0,9E0,3E0,1E1,1.17E2,9.015311E1,4.2E1,1.06773125E2,1.29E2,1.9495621E0,3.4949667E2,5.2E1,2.8098202E0,4.224553E0,1.7465538E2,4E0,-1.2796783E0,-8.269607E-1,-7.558491E-1,-3.1625867E-1,1.7443794E0,-8.688799E-3,-1.3241926E-1,-8.8302374E-1,3.0725694E-1,1.4555634E0,3.952557E-1,1.8047312E0,-2.0284286E-1,-9.470922E-1,7.1630913E-1,-6.4260787E-1,7.7144617E-1,1.2444061E0,1.1220975E0,3.9696438E0,5.0645304E-1,-1.2039571E-1,8.466627E-1,-1.4704895E-2,1.6589972E0,7.977387E-1],"split_indices":[7,6,7,7,1,6,6,6,1,7,2,7,0,7,7,7,7,5,0,5,6,0,6,7,0,2,0,0,0,6,1,0,0,0,0,0,0,0,0,0,0,0,0,0,0,0,0,0,0,0,0,0,0,0,0,0,0],"split_type":[0,0,0,0,0,0,0,0,0,0,0,0,0,0,0,0,0,0,0,0,0,0,0,0,0,0,0,0,0,0,0,0,0,0,0,0,0,0,0,0,0,0,0,0,0,0,0,0,0,0,0,0,0,0,0,0,0],"sum_hessian":[2.232E3,1.799E3,4.33E2,1.685E3,1.14E2,3.34E2,9.9E1,1.032E3,6.53E2,8.5E1,2.9E1,1.97E2,1.37E2,7.8E1,2.1E1,3.81E2,6.51E2,6.03E2,5E1,4.6E1,3.9E1,1.6E1,1.3E1,1.38E2,5.9E1,8E0,1.29E2,5.4E1,2.4E1,1.1E1,1E1,6.8E1,3.13E2,2.08E2,4.43E2,7E0,5.96E2,7E0,4.3E1,3.8E1,8E0,8E0,3.1E1,1.3E1,3E0,1.1E1,2E0,1.9E1,1.19E2,6E0,2E0,8.3E1,4.6E1,8E0,3E0,6E0,4E0],"tree_param":{"num_deleted":"0","num_feature":"8","num_nodes":"57","size_leaf_vector":"1"}},{"base_weights":[1.3248642E-1,-2.2887447E0,1.6557589E1,-4.064344E0,2.3570952E0,1.2989637E1,3.0125444E1,-4.8507724E0,5.9543595E0,4.9414783E0,-1.5908761E0,1.659367E1,4.735684E0,3.3357742E1,1.2988346E1,-8.134519E0,-3.7954762E0,3.6163538E0,1.3104283E1,3.0202553E0,7.889774E0,8.079629E-1,-5.170636E0,1.326217E0,2.0746896E0,8.090504E-1,7.5890975E0,2.832434E0,4.045281E0,1.373831E1,2.7443543E-1,-1.349879E0,-6.8296355E-1,-5.473251E-1,-1.00100435E-1,4.88013E-1,-2.1010995E-1,1.7355293E0,-3.0621229E-2,1.8594383E-1,2.0954702E0,1.2700084E0,4.2079243E-1,-1.2161481E0,1.6517957E-1,-4.158658E-1,-1.3366598E0,-4.0142497E-1,3.297015E-1,1.5017716E0,4.3646803E-1,1.6781187E0,7.339197E-1],"categories":[],"categories_nodes":[],"categories_segments":[],"categories_sizes":[],"default_left":[0,0,0,0,0,0,0,0,0,0,0,0,0,0,0,0,0,0,0,0,0,0,0,0,0,0,0,0,0,0,0,0,0,0,0,0,0,0,0,0,0,0,0,0,0,0,0,0,0,0,0,0,0],"id":20,"left_children":[1,3,5,7,9,11,13,15,17,19,21,23,25,27,29,31,33,35,37,39,41,43,45,-1,-1,47,49,-1,-1,51,-1,-1,-1,-1,-1,-1,-1,-1,-1,-1,-1,-1,-1,-1,-1,-1,-1,-1,-1,-1,-1,-1,-1],"loss_changes":[8.884201E4,1.6070674E4,1.3502195E4,1.1130387E4,5.5073154E3,6.7335938E3,2.834879E3,4.4983047E3,1.6744163E3,1.8227432E3,1.8418529E3,1.9248516E3,7.893661E2,6.0410547E2,4.6806274E1,2.1267266E3,4.6408193E3,5.8107446E2,1.4305181E3,4.1039395E3,2.2135454E3,1.4318695E3,6.577085E2,0E0,0E0,3.8524124E2,9.165239E2,0E0,0E0,7.155652E1,0E0,0E0,0E0,0E0,0E0,0E0,0E0,0E0,0E0,0E0,0E0,0E0,0E0,0E0,0E0,0E0,0E0,0E0,0E0,0E0,0E0,0E0,0E0],"parents":[2147483647,0,0,1,1,2,2,3,3,4,4,5,5,6,6,7,7,8,8,9,9,10,10,11,11,12,12,13,13,14,14,15,15,16,16,17,17,18,18,19,19,20,20,21,21,22,22,25,25,26,26,29,29],"right_children":[2,4,6,8,10,12,14,16,18,20,22,24,26,28,30,32,34,36,38,40,42,44,46,-1,-1,48,50,-1,-1,52,-1,-1,-1,-1,-1,-1,-1,-1,-1,-1,-1,-1,-1,-1,-1,-1,-1,-1,-1,-1,-1,-1,-1],"split_conditions":[1.59E2,6.6E1,2.85E2,8.391861E1,4E0,5.6568542E1,3E0,9E0,1.4849243E2,1.15E2,4.5E1,2.02E2,1.82E2,3.41E2,6.1E1,4E0,2.5006666E1,6E1,4E0,7.482146E1,2.9E1,3E0,1.29E2,1.326217E0,2.0746896E0,1.77525E2,9.828784E1,2.832434E0,4.045281E0,4E0,2.7443543E-1,-1.349879E0,-6.8296355E-1,-5.473251E-1,-1.00100435E-1,4.88013E-1,-2.1010995E-1,1.7355293E0,-3.0621229E-2,1.8594383E-1,2.0954702E0,1.2700084E0,4.2079243E-1,-1.2161481E0,1.6517957E-1,-4.158658E-1,-1.3366598E0,-4.0142497E-1,3.297015E-1,1.5017716E0,4.3646803E-1,1.6781187E0,7.339197E-1],"split_indices":[7,7,7,6,1,6,1,7,6,7,0,7,7,7,0,1,6,0,1,6,5,0,0,0,0,2,6,0,0,1,0,0,0,0,0,0,0,0,0,0,0,0,0,0,0,0,0,0,0,0,0,0,0],"split_type":[0,0,0,0,0,0,0,0,0,0,0,0,0,0,0,0,0,0,0,0,0,0,0,0,0,0,0,0,0,0,0,0,0,0,0,0,0,0,0,0,0,0,0,0,0,0,0,0,0,0,0,0,0],"sum_hessian":[2.232E3,1.946E3,2.86E2,1.408E3,5.38E2,2.28E2,5.8E1,1.306E3,1.02E2,3.25E2,2.13E2,1.58E2,7E1,4.8E1,1E1,3.16E2,9.9E2,7.8E1,2.4E1,1.98E2,1.27E2,1.28E2,8.5E1,9E1,6.8E1,3E1,4E1,3.1E1,1.7E1,9E0,1E0,6E1,2.56E2,6.18E2,3.72E2,6.4E1,1.4E1,1.8E1,6E0,1.87E2,1.1E1,5.4E1,7.3E1,7E0,1.21E2,7.7E1,8E0,1E1,2E1,1.1E1,2.9E1,5E0,4E0],"tree_param":{"num_deleted":"0","num_feature":"8","num_nodes":"53","size_leaf_vector":"1"}},{"base_weights":[1.2609093E-1,-1.8423326E0,1.6633852E1,-3.0814729E0,4.585417E0,1.3053509E1,2.7275007E1,-3.938692E0,4.525565E0,7.6978664E0,-1.0350568E0,1.5936394E1,4.5564847E0,3.0162333E1,1.193374E1,-5.412841E0,-1.4835E0,9.454366E0,1.2276623E0,8.032331E0,-3.0535219E0,6.052363E0,-5.2927475E0,1.3004193E1,1.9336039E0,6.186427E0,2.7258953E-1,2.5580425E0,3.663226E0,1.2605685E1,2.6071396E-1,-7.7712923E-1,-3.9156327E-1,-3.875384E-2,-4.9458233E-1,4.3037415E-1,1.7116286E0,2.2616196E-1,-7.625582E-1,8.425843E-1,4.4296953E-1,9.3883134E-2,-6.2824947E-1,3.5369594E0,4.925476E-2,-6.218066E-1,3.0665116E0,1.3256898E0,5.20446E-1,2.2352694E-1,8.2400006E-1,-2.2744302E-1,4.0476876E-1,1.5382756E0,6.752063E-1],"categories":[],"categories_nodes":[],"categories_segments":[],"categories_sizes":[],"default_left":[0,0,0,0,0,0,0,0,0,0,0,0,0,0,0,0,0,0,0,0,0,0,0,0,0,0,0,0,0,0,0,0,0,0,0,0,0,0,0,0,0,0,0,0,0,0,0,0,0,0,0,0,0,0,0],"id":21,"left_children":[1,3,5,7,9,11,13,15,17,19,21,23,25,27,29,31,33,35,37,39,41,43,45,47,-1,49,51,-1,-1,53,-1,-1,-1,-1,-1,-1,-1,-1,-1,-1,-1,-1,-1,-1,-1,-1,-1,-1,-1,-1,-1,-1,-1,-1,-1],"loss_changes":[7.259034E4,1.5912037E4,8.711531E3,1.0933809E4,5.6583486E3,4.3366543E3,2.2534688E3,5.439047E3,2.751693E3,7.724863E2,3.532454E3,1.0843203E3,3.2649127E2,5.155156E2,3.6071777E1,3.2887969E3,2.145812E3,2.6098647E3,9.6009546E2,2.4904785E2,9.6136604E1,7.1545073E3,2.61957E3,7.883203E1,0E0,2.5745728E2,1.4381967E2,0E0,0E0,5.869409E1,0E0,0E0,0E0,0E0,0E0,0E0,0E0,0E0,0E0,0E0,0E0,0E0,0E0,0E0,0E0,0E0,0E0,0E0,0E0,0E0,0E0,0E0,0E0,0E0,0E0],"parents":[2147483647,0,0,1,1,2,2,3,3,4,4,5,5,6,6,7,7,8,8,9,9,10,10,11,11,12,12,13,13,14,14,15,15,16,16,17,17,18,18,19,19,20,20,21,21,22,22,23,23,25,25,26,26,29,29],"right_children":[2,4,6,8,10,12,14,16,18,20,22,24,26,28,30,32,34,36,38,40,42,44,46,48,-1,50,52,-1,-1,54,-1,-1,-1,-1,-1,-1,-1,-1,-1,-1,-1,-1,-1,-1,-1,-1,-1,-1,-1,-1,-1,-1,-1,-1,-1],"split_conditions":[1.73E2,9.8E1,2.85E2,6.835203E1,4.0003334E1,7.0844315E1,3E0,4.1E1,4E0,7E0,3.1E1,2.14E2,9.5E1,3.41E2,6.1E1,1.30128145E1,6E0,3E1,7.2E1,4E0,1.1978724E1,2.6E1,8.468085E-1,4E0,1.9336039E0,2E2,2.2E2,2.5580425E0,3.663226E0,4E0,2.6071396E-1,-7.7712923E-1,-3.9156327E-1,-3.875384E-2,-4.9458233E-1,4.3037415E-1,1.7116286E0,2.2616196E-1,-7.625582E-1,8.425843E-1,4.4296953E-1,9.3883134E-2,-6.2824947E-1,3.5369594E0,4.925476E-2,-6.218066E-1,3.0665116E0,1.3256898E0,5.20446E-1,2.2352694E-1,8.2400006E-1,-2.2744302E-1,4.0476876E-1,1.5382756E0,6.752063E-1],"split_indices":[7,7,7,6,6,6,1,7,1,1,0,7,5,7,0,6,1,7,0,1,3,5,4,1,0,7,7,0,0,1,0,0,0,0,0,0,0,0,0,0,0,0,0,0,0,0,0,0,0,0,0,0,0,0,0],"split_type":[0,0,0,0,0,0,0,0,0,0,0,0,0,0,0,0,0,0,0,0,0,0,0,0,0,0,0,0,0,0,0,0,0,0,0,0,0,0,0,0,0,0,0,0,0,0,0,0,0,0,0,0,0,0,0],"sum_hessian":[2.232E3,1.995E3,2.37E2,1.673E3,3.22E2,1.79E2,5.8E1,1.504E3,1.69E2,2.07E2,1.15E2,1.33E2,4.6E1,4.8E1,1E1,9.39E2,5.65E2,6.7E1,1.02E2,2.01E2,6E0,4.3E1,7.2E1,7.4E1,5.9E1,3.3E1,1.3E1,3.1E1,1.7E1,9E0,1E0,3.63E2,5.76E2,4.3E2,1.35E2,4.1E1,2.6E1,9.2E1,1E1,1.8E2,2.1E1,3E0,3E0,6E0,3.7E1,7.1E1,1E0,7.1E1,3E0,1.2E1,2.1E1,8E0,5E0,5E0,4E0],"tree_param":{"num_deleted":"0","num_feature":"8","num_nodes":"55","size_leaf_vector":"1"}},{"base_weights":[1.2261141E-1,-2.1741803E0,1.1730725E1,-4.669333E0,-3.800798E-1,8.776725E0,2.3003693E1,-8.301946E0,-3.2000787E0,1.0356872E0,-4.8366737E0,1.1316224E1,3.0778654E0,2.638258E1,8.683952E0,-1.0839897E1,-7.471636E0,-3.9595227E0,2.509718E0,5.4967916E-1,1.3466031E1,-2.564784E0,-7.3832426E0,8.985831E0,1.5012895E0,6.7651467E0,-1.5475364E-1,2.3684204E0,3.5427265E0,3.054166E0,1.0965295E1,-1.2852129E0,-8.25596E-1,-8.027526E-1,-6.072044E-1,-6.6441435E-1,-2.8621563E-1,1.5307741E-1,1.7300656E0,-4.65463E-2,3.0454218E-1,1.9286845E0,5.020269E-1,-6.473056E-2,-6.3451713E-1,-6.2892294E-1,-1.2397534E0,7.6510394E-1,1.0490822E0,3.1938996E0,5.405317E-1,-9.951909E-1,1.1549727E-1,7.5501555E-1,-1.0813675E-1,1.1566467E0,2.4767838E-1],"categories":[],"categories_nodes":[],"categories_segments":[],"categories_sizes":[],"default_left":[0,0,0,0,0,0,0,0,0,0,0,0,0,0,0,0,0,0,0,0,0,0,0,0,0,0,0,0,0,0,0,0,0,0,0,0,0,0,0,0,0,0,0,0,0,0,0,0,0,0,0,0,0,0,0,0,0],"id":22,"left_children":[1,3,5,7,9,11,13,15,17,19,21,23,25,27,29,31,33,35,37,39,41,43,45,47,-1,49,51,-1,-1,53,55,-1,-1,-1,-1,-1,-1,-1,-1,-1,-1,-1,-1,-1,-1,-1,-1,-1,-1,-1,-1,-1,-1,-1,-1,-1,-1],"loss_changes":[5.9560457E4,8.347001E3,1.2085934E4,4.1364727E3,6.857125E3,4.2200117E3,3.4481445E3,3.91042E2,2.4252407E3,4.9766265E3,1.4968711E3,1.6138789E3,1.0976478E3,6.496953E2,1.7200562E2,1.6946582E2,8.5075195E1,1.4304214E3,9.291636E2,2.0155767E3,1.4271719E3,1.0107262E3,5.9677E2,1.748584E2,0E0,1.299342E3,6.530737E2,0E0,0E0,1.1972438E2,2.7486084E1,0E0,0E0,0E0,0E0,0E0,0E0,0E0,0E0,0E0,0E0,0E0,0E0,0E0,0E0,0E0,0E0,0E0,0E0,0E0,0E0,0E0,0E0,0E0,0E0,0E0,0E0],"parents":[2147483647,0,0,1,1,2,2,3,3,4,4,5,5,6,6,7,7,8,8,9,9,10,10,11,11,12,12,13,13,14,14,15,15,16,16,17,17,18,18,19,19,20,20,21,21,22,22,23,23,25,25,26,26,29,29,30,30],"right_children":[2,4,6,8,10,12,14,16,18,20,22,24,26,28,30,32,34,36,38,40,42,44,46,48,-1,50,52,-1,-1,54,56,-1,-1,-1,-1,-1,-1,-1,-1,-1,-1,-1,-1,-1,-1,-1,-1,-1,-1,-1,-1,-1,-1,-1,-1,-1,-1],"split_conditions":[1.37E2,2.5E1,2.64E2,1.1313708E1,6E0,5.1618793E1,7.0710677E-1,5E0,8.391861E1,1.0100165E2,8E0,1.91E2,4E0,3.51E2,2.85E2,4.774935E0,9.174312E-2,4E0,2.0293965E2,8.8E1,4E0,3.7E1,1.4E1,1.63E2,1.5012895E0,1.39E2,1.41E2,2.3684204E0,3.5427265E0,1.2045455E1,6.1E1,-1.2852129E0,-8.25596E-1,-8.027526E-1,-6.072044E-1,-6.6441435E-1,-2.8621563E-1,1.5307741E-1,1.7300656E0,-4.65463E-2,3.0454218E-1,1.9286845E0,5.020269E-1,-6.473056E-2,-6.3451713E-1,-6.2892294E-1,-1.2397534E0,7.6510394E-1,1.0490822E0,3.1938996E0,5.405317E-1,-9.951909E-1,1.1549727E-1,7.5501555E-1,-1.0813675E-1,1.1566467E0,2.4767838E-1],"split_indices":[7,7,7,6,1,6,6,7,6,6,1,7,1,7,7,6,4,7,6,7,1,0,1,7,0,7,7,0,0,3,0,0,0,0,0,0,0,0,0,0,0,0,0,0,0,0,0,0,0,0,0,0,0,0,0,0,0],"split_type":[0,0,0,0,0,0,0,0,0,0,0,0,0,0,0,0,0,0,0,0,0,0,0,0,0,0,0,0,0,0,0,0,0,0,0,0,0,0,0,0,0,0,0,0,0,0,0,0,0,0,0,0,0,0,0,0,0],"sum_hessian":[2.232E3,1.864E3,3.68E2,7.79E2,1.085E3,2.93E2,7.5E1,2.23E2,5.56E2,8.24E2,2.61E2,2.02E2,9.1E1,6E1,1.5E1,5.2E1,1.71E2,4.91E2,6.5E1,7.94E2,3E1,1.39E2,1.22E2,1.26E2,7.6E1,4.2E1,4.9E1,4.9E1,1.1E1,5E0,1E1,2.7E1,2.5E1,1.19E2,5.2E1,1.41E2,3.5E2,6.2E1,3E0,5.65E2,2.29E2,1.7E1,1.3E1,9.3E1,4.6E1,1.02E2,2E1,7E1,5.6E1,1E0,4.1E1,5E0,4.4E1,2E0,3E0,9E0,1E0],"tree_param":{"num_deleted":"0","num_feature":"8","num_nodes":"57","size_leaf_vector":"1"}},{"base_weights":[1.1557419E-1,-1.9580852E0,1.0595951E1,-4.2057176E0,-3.419604E-1,7.385114E0,1.9159252E1,-6.824465E0,-2.5369184E0,6.67019E-1,-5.458225E0,9.598166E0,1.9130728E0,2.2193197E1,7.3937564E0,-8.159156E0,-5.480127E0,-3.301713E0,2.2872794E0,-1.7573483E-2,7.656841E0,-3.9409034E0,-8.477508E0,8.048028E0,1.279522E0,1.3023425E1,6.520188E-1,1.8855475E0,2.864846E0,2.7251215E0,9.390778E0,-9.7743666E-1,-6.121381E-1,-4.2522737E-1,-8.1849784E-1,-8.972301E-1,-2.686405E-1,1.3801275E-1,1.6003102E0,-9.141155E-2,2.6251745E-1,1.6296915E0,5.279332E-1,-7.837928E-2,-7.4719787E-1,-1.0312346E0,-5.569634E-1,6.8830496E-1,9.4601387E-1,3.0342045E0,6.214759E-1,-6.7835754E-1,2.5637755E-1,-1.7444305E-2,5.668297E-1,-8.446427E-2,1.0182211E0],"categories":[],"categories_nodes":[],"categories_segments":[],"categories_sizes":[],"default_left":[0,0,0,0,0,0,0,0,0,0,0,0,0,0,0,0,0,0,0,0,0,0,0,0,0,0,0,0,0,0,0,0,0,0,0,0,0,0,0,0,0,0,0,0,0,0,0,0,0,0,0,0,0,0,0,0,0],"id":23,"left_children":[1,3,5,7,9,11,13,15,17,19,21,23,25,27,29,31,33,35,37,39,41,43,45,47,-1,49,51,-1,-1,53,55,-1,-1,-1,-1,-1,-1,-1,-1,-1,-1,-1,-1,-1,-1,-1,-1,-1,-1,-1,-1,-1,-1,-1,-1,-1,-1],"loss_changes":[4.8549938E4,6.77309E3,1.0004301E4,3.391413E3,5.609796E3,3.2513154E3,3.405496E3,4.9895215E2,1.7711426E3,4.3450776E3,7.866299E2,8.4855273E2,1.0983582E3,1.1619414E3,1.7952295E2,4.338838E2,4.766543E2,1.4169194E3,7.9910767E2,1.9642089E3,1.5778535E3,1.3430511E3,2.5735693E2,1.5203613E2,0E0,7.5476526E2,1.0408751E3,0E0,0E0,6.926021E1,1.301101E2,0E0,0E0,0E0,0E0,0E0,0E0,0E0,0E0,0E0,0E0,0E0,0E0,0E0,0E0,0E0,0E0,0E0,0E0,0E0,0E0,0E0,0E0,0E0,0E0,0E0,0E0],"parents":[2147483647,0,0,1,1,2,2,3,3,4,4,5,5,6,6,7,7,8,8,9,9,10,10,11,11,12,12,13,13,14,14,15,15,16,16,17,17,18,18,19,19,20,20,21,21,22,22,23,23,25,25,26,26,29,29,30,30],"right_children":[2,4,6,8,10,12,14,16,18,20,22,24,26,28,30,32,34,36,38,40,42,44,46,48,-1,50,52,-1,-1,54,56,-1,-1,-1,-1,-1,-1,-1,-1,-1,-1,-1,-1,-1,-1,-1,-1,-1,-1,-1,-1,-1,-1,-1,-1,-1,-1],"split_conditions":[1.37E2,2.5E1,2.42E2,1.5556349E1,7E0,5.5154327E1,9.828784E1,6.59114E0,8.391861E1,7.011205E1,3E1,1.91E2,1.0791045E1,3.32E2,5E0,1.4E1,2.3E1,4E0,2.0293965E2,9.2E1,1.1454545E1,1E1,4.7E1,1.63E2,1.279522E0,1.39E2,1.55E2,1.8855475E0,2.864846E0,2.85E2,3E0,-9.7743666E-1,-6.121381E-1,-4.2522737E-1,-8.1849784E-1,-8.972301E-1,-2.686405E-1,1.3801275E-1,1.6003102E0,-9.141155E-2,2.6251745E-1,1.6296915E0,5.279332E-1,-7.837928E-2,-7.4719787E-1,-1.0312346E0,-5.569634E-1,6.8830496E-1,9.4601387E-1,3.0342045E0,6.214759E-1,-6.7835754E-1,2.5637755E-1,-1.7444305E-2,5.668297E-1,-8.446427E-2,1.0182211E0],"split_indices":[7,7,7,6,1,6,6,6,6,6,0,7,3,7,0,7,1,1,6,7,3,1,7,7,0,7,7,0,0,7,1,0,0,0,0,0,0,0,0,0,0,0,0,0,0,0,0,0,0,0,0,0,0,0,0,0,0],"split_type":[0,0,0,0,0,0,0,0,0,0,0,0,0,0,0,0,0,0,0,0,0,0,0,0,0,0,0,0,0,0,0,0,0,0,0,0,0,0,0,0,0,0,0,0,0,0,0,0,0,0,0,0,0,0,0,0,0],"sum_hessian":[2.232E3,1.864E3,3.68E2,7.79E2,1.085E3,2.69E2,9.9E1,3.02E2,4.77E2,9.07E2,1.78E2,1.91E2,7.8E1,7.8E1,2.1E1,1.49E2,1.53E2,4.12E2,6.5E1,8.27E2,8E1,1.2E2,5.8E1,1.31E2,6E1,7E0,7.1E1,5.4E1,2.4E1,7E0,1.4E1,8.1E1,6.8E1,1.07E2,4.6E1,3.9E1,3.73E2,6.2E1,3E0,6.18E2,2.09E2,1.6E1,6.4E1,6.4E1,5.6E1,3.4E1,2.4E1,7.5E1,5.6E1,1E0,6E0,1.4E1,5.7E1,4E0,3E0,1E0,1.3E1],"tree_param":{"num_deleted":"0","num_feature":"8","num_nodes":"57","size_leaf_vector":"1"}},{"base_weights":[1.0850975E-1,-1.2451829E0,1.3223911E1,-2.257602E0,3.5730975E0,1.0623051E1,2.1073185E1,-3.236858E0,1.8326216E0,6.2059646E0,-8.620295E-1,1.2458279E1,2.9501715E0,2.2957537E1,9.728704E0,-2.747223E0,-6.64515E0,2.8078735E0,-1.237258E1,6.735153E0,2.3178034E0,-1.5152272E0,2.773055E0,9.471584E0,1.4578779E1,-1.6876475E0,4.5664296E0,1.9766566E0,2.9553666E0,1.1059791E1,3.3799362E-1,-4.5866427E-1,-2.0151566E-1,-6.044184E-1,-1.2412125E0,6.3103455E-1,-1.4509726E-1,-7.388391E-1,-2.3601654E0,6.3296103E-1,1.2358416E0,-1.3317338E-2,4.7782928E-1,1.7587422E-1,-8.925627E-1,9.61407E-1,8.174515E-2,1.3536594E0,1.8347591E0,3.7394512E-1,-3.7724546E-1,9.715843E-1,2.6999608E-1,1.3400867E0,3.4714E-1],"categories":[],"categories_nodes":[],"categories_segments":[],"categories_sizes":[],"default_left":[0,0,0,0,0,0,0,0,0,0,0,0,0,0,0,0,0,0,0,0,0,0,0,0,0,0,0,0,0,0,0,0,0,0,0,0,0,0,0,0,0,0,0,0,0,0,0,0,0,0,0,0,0,0,0],"id":24,"left_children":[1,3,5,7,9,11,13,15,17,19,21,23,25,27,29,31,33,35,37,39,41,43,-1,45,47,49,51,-1,-1,53,-1,-1,-1,-1,-1,-1,-1,-1,-1,-1,-1,-1,-1,-1,-1,-1,-1,-1,-1,-1,-1,-1,-1,-1,-1],"loss_changes":[3.9661645E4,9.886258E3,4.0428477E3,6.7109297E3,4.11569E3,2.2021992E3,8.668789E2,2.2363193E3,4.5233228E3,4.3911133E2,2.5073303E3,6.725781E2,2.4757578E2,3.2089258E2,3.8675415E1,1.5837578E3,5.1069238E2,4.5437695E3,1.0009463E3,3.6418848E2,1.6949318E2,3.1696826E3,0E0,6.1193848E1,3.8365234E1,1.1593697E2,2.0443692E2,0E0,0E0,7.7835205E1,0E0,0E0,0E0,0E0,0E0,0E0,0E0,0E0,0E0,0E0,0E0,0E0,0E0,0E0,0E0,0E0,0E0,0E0,0E0,0E0,0E0,0E0,0E0,0E0,0E0],"parents":[2147483647,0,0,1,1,2,2,3,3,4,4,5,5,6,6,7,7,8,8,9,9,10,10,11,11,12,12,13,13,14,14,15,15,16,16,17,17,18,18,19,19,20,20,21,21,23,23,24,24,25,25,26,26,29,29],"right_children":[2,4,6,8,10,12,14,16,18,20,22,24,26,28,30,32,34,36,38,40,42,44,-1,46,48,50,52,-1,-1,54,-1,-1,-1,-1,-1,-1,-1,-1,-1,-1,-1,-1,-1,-1,-1,-1,-1,-1,-1,-1,-1,-1,-1,-1,-1],"split_conditions":[1.82E2,9.8E1,2.91E2,4.7376156E1,4.0003334E1,9.828784E1,3E0,1.4E1,1.35E2,4E0,8.5714287E-1,2.07E2,2.14E2,3.51E2,4E0,1.8E1,2.9E1,5E0,4.8E1,2.5006666E1,1.2570371E1,6.7E1,2.773055E0,4E0,2.73E2,1.1574074E1,1.1313487E2,1.9766566E0,2.9553666E0,4E1,3.3799362E-1,-4.5866427E-1,-2.0151566E-1,-6.044184E-1,-1.2412125E0,6.3103455E-1,-1.4509726E-1,-7.388391E-1,-2.3601654E0,6.3296103E-1,1.2358416E0,-1.3317338E-2,4.7782928E-1,1.7587422E-1,-8.925627E-1,9.61407E-1,8.174515E-2,1.3536594E0,1.8347591E0,3.7394512E-1,-3.7724546E-1,9.715843E-1,2.6999608E-1,1.3400867E0,3.4714E-1],"split_indices":[7,7,7,6,6,6,1,1,0,1,4,7,7,7,1,7,7,1,7,6,3,0,0,1,7,3,6,0,0,0,0,0,0,0,0,0,0,0,0,0,0,0,0,0,0,0,0,0,0,0,0,0,0,0,0],"split_type":[0,0,0,0,0,0,0,0,0,0,0,0,0,0,0,0,0,0,0,0,0,0,0,0,0,0,0,0,0,0,0,0,0,0,0,0,0,0,0,0,0,0,0,0,0,0,0,0,0,0,0,0,0,0,0],"sum_hessian":[2.232E3,2.024E3,2.08E2,1.673E3,3.51E2,1.58E2,5E1,1.35E3,3.23E2,2.2E2,1.31E2,1.27E2,3.1E1,4.2E1,8E0,1.182E3,1.68E2,3.03E2,2E1,1.93E2,2.7E1,1.29E2,2E0,5.5E1,7.2E1,8E0,2.3E1,3.1E1,1.1E1,6E0,2E0,3.35E2,8.47E2,1.54E2,1.4E1,1.66E2,1.37E2,1.5E1,5E0,1.82E2,1.1E1,1.4E1,1.3E1,9E1,3.9E1,5.4E1,1E0,6E1,1.2E1,2E0,6E0,5E0,1.8E1,4E0,2E0],"tree_param":{"num_deleted":"0","num_feature":"8","num_nodes":"55","size_leaf_vector":"1"}},{"base_weights":[1.0289748E-1,-1.5991527E0,8.705122E0,-2.9029615E0,3.7362826E-1,6.6202326E0,1.7673912E1,-3.4836154E0,3.7203205E0,1.4605752E0,-2.2337725E0,8.44226E0,2.1141646E0,2.0179829E1,7.307283E0,-5.3238153E0,-2.4001186E0,2.1474433E0,1.1546401E1,1.1727583E0,1.3667018E1,-1.6032416E0,-1.6768024E1,6.6645446E0,1.1167755E1,1.1294682E1,1.0549293E0,1.7903534E0,2.6844592E0,3.3781729E0,1.0322983E1,-7.7373356E-1,-4.8320165E-1,-1.4995109E-1,-5.3527796E-1,7.134642E-2,5.9374136E-1,2.8239194E-1,1.8825582E0,1.6293496E-1,-5.321157E-1,-1.751732E-1,1.522797E0,-8.3781354E-2,-5.563328E-1,-8.387007E-1,-1.95607E0,1.2981135E0,6.365736E-1,9.397006E-1,1.2094558E0,2.8737009E0,5.5222654E-1,-6.17213E-1,2.681459E-1,7.6531984E-2,4.792821E-1,1.2388309E0,2.751338E-1],"categories":[],"categories_nodes":[],"categories_segments":[],"categories_sizes":[],"default_left":[0,0,0,0,0,0,0,0,0,0,0,0,0,0,0,0,0,0,0,0,0,0,0,0,0,0,0,0,0,0,0,0,0,0,0,0,0,0,0,0,0,0,0,0,0,0,0,0,0,0,0,0,0,0,0,0,0,0,0],"id":25,"left_children":[1,3,5,7,9,11,13,15,17,19,21,23,25,27,29,31,33,35,37,39,41,43,45,47,49,51,53,-1,-1,55,57,-1,-1,-1,-1,-1,-1,-1,-1,-1,-1,-1,-1,-1,-1,-1,-1,-1,-1,-1,-1,-1,-1,-1,-1,-1,-1,-1,-1],"loss_changes":[3.2708205E4,4.7981055E3,6.7828984E3,4.331835E3,2.1090037E3,2.453416E3,1.6450176E3,2.0468691E3,1.0953658E3,1.8284127E3,1.980098E3,9.624336E2,8.4382574E2,3.5378906E2,1.4286249E2,4.1603418E2,1.7257656E3,4.1423868E2,8.9922595E2,1.5327133E3,3.1549048E2,6.349142E2,4.659326E1,1.6650977E2,2.2561523E1,7.4746594E2,9.569525E2,0E0,0E0,2.5902092E1,9.101886E1,0E0,0E0,0E0,0E0,0E0,0E0,0E0,0E0,0E0,0E0,0E0,0E0,0E0,0E0,0E0,0E0,0E0,0E0,0E0,0E0,0E0,0E0,0E0,0E0,0E0,0E0,0E0,0E0],"parents":[2147483647,0,0,1,1,2,2,3,3,4,4,5,5,6,6,7,7,8,8,9,9,10,10,11,11,12,12,13,13,14,14,15,15,16,16,17,17,18,18,19,19,20,20,21,21,22,22,23,23,24,24,25,25,26,26,29,29,30,30],"right_children":[2,4,6,8,10,12,14,16,18,20,22,24,26,28,30,32,34,36,38,40,42,44,46,48,50,52,54,-1,-1,56,58,-1,-1,-1,-1,-1,-1,-1,-1,-1,-1,-1,-1,-1,-1,-1,-1,-1,-1,-1,-1,-1,-1,-1,-1,-1,-1,-1,-1],"split_conditions":[1.37E2,4.3E1,2.73E2,8.391861E1,5E0,5.5154327E1,3E0,1.30128145E1,1.6334166E2,1.0323759E2,1.27E2,1.91E2,1.0791045E1,3.51E2,2.16845E2,5E0,1.1E1,2.3E1,2.0260385E2,1.4E2,4.4E1,9E0,1.85E2,4E0,2.14E2,1.39E2,1.55E2,1.7903534E0,2.6844592E0,2.85E2,4E0,-7.7373356E-1,-4.8320165E-1,-1.4995109E-1,-5.3527796E-1,7.134642E-2,5.9374136E-1,2.8239194E-1,1.8825582E0,1.6293496E-1,-5.321157E-1,-1.751732E-1,1.522797E0,-8.3781354E-2,-5.563328E-1,-8.387007E-1,-1.95607E0,1.2981135E0,6.365736E-1,9.397006E-1,1.2094558E0,2.8737009E0,5.5222654E-1,-6.17213E-1,2.681459E-1,7.6531984E-2,4.792821E-1,1.2388309E0,2.751338E-1],"split_indices":[7,7,7,6,1,6,1,6,6,6,0,7,3,7,2,7,1,7,2,5,7,1,0,0,7,7,7,0,0,7,1,0,0,0,0,0,0,0,0,0,0,0,0,0,0,0,0,0,0,0,0,0,0,0,0,0,0,0,0],"split_type":[0,0,0,0,0,0,0,0,0,0,0,0,0,0,0,0,0,0,0,0,0,0,0,0,0,0,0,0,0,0,0,0,0,0,0,0,0,0,0,0,0,0,0,0,0,0,0,0,0,0,0,0,0,0,0,0,0,0,0],"sum_hessian":[2.232E3,1.864E3,3.68E2,1.122E3,7.42E2,3E2,6.8E1,1.032E3,9E1,5.24E2,2.18E2,2.13E2,8.7E1,5.4E1,1.4E1,3.81E2,6.51E2,7.6E1,1.4E1,5.13E2,1.1E1,2.1E2,8E0,1.31E2,8.2E1,8E0,7.9E1,4.3E1,1.1E1,7E0,7E0,6.2E1,3.19E2,5E2,1.51E2,5.6E1,2E1,7E0,7E0,4.8E2,3.3E1,1E0,1E1,1.77E2,3.3E1,3E0,5E0,4E0,1.27E2,3.2E1,5E1,1E0,7E0,1.4E1,6.5E1,3E0,4E0,5E0,2E0],"tree_param":{"num_deleted":"0","num_feature":"8","num_nodes":"59","size_leaf_vector":"1"}},{"base_weights":[9.804387E-2,-1.6062979E0,7.1665163E0,-2.0500042E0,3.2527883E0,4.9120846E0,1.3926077E1,-3.1762369E0,-2.8577086E-1,2.19397E0,1.3457369E1,6.2080693E0,-1.15386456E-1,1.6228554E1,5.1912174E0,-4.7947245E0,-2.183524E0,1.4853569E1,-4.7545525E-1,7.435651E-1,8.7200575E0,1.932202E1,-6.0347652E0,6.873126E0,-3.1150885E0,-1.7254726E0,5.688616E0,1.42477045E1,2.2810175E1,2.724987E0,7.858127E0,-6.865663E-1,-4.3243757E-1,-1.7206791E-1,-7.481083E-1,-2.4576405E-1,2.103358E0,1.5143923E-1,-1.4506714E-1,1.8164234E-1,-4.094161E-1,2.481623E-1,1.527156E0,2.1543076E0,-1.444271E-1,-9.679639E-1,2.4499284E-1,1.5404001E0,6.4791864E-1,-7.494573E-1,3.531806E-2,-6.5146893E-1,4.6247873E-2,-1.2808584E-1,9.3014395E-1,1.4339834E0,4.0375137E-1,2.3397274E0,6.414749E-1,-3.014412E-2,4.4398293E-1,8.357815E-1,1.4306259E-1],"categories":[],"categories_nodes":[],"categories_segments":[],"categories_sizes":[],"default_left":[0,0,0,0,0,0,0,0,0,0,0,0,0,0,0,0,0,0,0,0,0,0,0,0,0,0,0,0,0,0,0,0,0,0,0,0,0,0,0,0,0,0,0,0,0,0,0,0,0,0,0,0,0,0,0,0,0,0,0,0,0,0,0],"id":26,"left_children":[1,3,5,7,9,11,13,15,17,19,21,23,25,27,29,31,33,35,37,39,41,43,45,47,49,51,53,55,57,59,61,-1,-1,-1,-1,-1,-1,-1,-1,-1,-1,-1,-1,-1,-1,-1,-1,-1,-1,-1,-1,-1,-1,-1,-1,-1,-1,-1,-1,-1,-1,-1,-1],"loss_changes":[2.6912668E4,3.8874824E3,6.5453066E3,3.2775386E3,1.601999E3,2.1312925E3,2.08783E3,1.6074707E3,1.8564347E3,1.2997507E3,1.7170078E3,1.6335225E3,6.452717E2,7.831699E2,1.3643988E2,3.4240234E2,1.5220471E3,9.075604E2,1.2383156E3,5.9911896E2,9.8387964E2,5.3846826E2,1.4741698E2,7.1683105E2,2.7605304E2,5.688558E2,3.8960596E2,6.067383E0,2.3175781E1,7.39962E1,2.3372192E1,0E0,0E0,0E0,0E0,0E0,0E0,0E0,0E0,0E0,0E0,0E0,0E0,0E0,0E0,0E0,0E0,0E0,0E0,0E0,0E0,0E0,0E0,0E0,0E0,0E0,0E0,0E0,0E0,0E0,0E0,0E0,0E0],"parents":[2147483647,0,0,1,1,2,2,3,3,4,4,5,5,6,6,7,7,8,8,9,9,10,10,11,11,12,12,13,13,14,14,15,15,16,16,17,17,18,18,19,19,20,20,21,21,22,22,23,23,24,24,25,25,26,26,27,27,28,28,29,29,30,30],"right_children":[2,4,6,8,10,12,14,16,18,20,22,24,26,28,30,32,34,36,38,40,42,44,46,48,50,52,54,56,58,60,62,-1,-1,-1,-1,-1,-1,-1,-1,-1,-1,-1,-1,-1,-1,-1,-1,-1,-1,-1,-1,-1,-1,-1,-1,-1,-1,-1,-1,-1,-1,-1,-1],"split_conditions":[1.21E2,7.482146E1,2.37E2,4.3E1,7.8E1,4E0,1.0423491E2,1.30128145E1,3E0,1.4849243E2,7.2E1,8.640409E1,1.3742857E1,3.41E2,2.85E2,6E0,1.12E2,5.0485E1,5.879231E0,6E0,1.2E1,5E0,3.69062E2,4E0,2.3E1,1.41E2,1.70465E2,9.5E1,2.6E1,7E0,6.1E1,-6.865663E-1,-4.3243757E-1,-1.7206791E-1,-7.481083E-1,-2.4576405E-1,2.103358E0,1.5143923E-1,-1.4506714E-1,1.8164234E-1,-4.094161E-1,2.481623E-1,1.527156E0,2.1543076E0,-1.444271E-1,-9.679639E-1,2.4499284E-1,1.5404001E0,6.4791864E-1,-7.494573E-1,3.531806E-2,-6.5146893E-1,4.6247873E-2,-1.2808584E-1,9.3014395E-1,1.4339834E0,4.0375137E-1,2.3397274E0,6.414749E-1,-3.014412E-2,4.4398293E-1,8.357815E-1,1.4306259E-1],"split_indices":[7,6,7,7,7,1,6,6,5,6,0,6,3,7,7,7,0,2,6,1,7,1,2,0,0,7,2,0,0,0,0,0,0,0,0,0,0,0,0,0,0,0,0,0,0,0,0,0,0,0,0,0,0,0,0,0,0,0,0,0,0,0,0],"split_type":[0,0,0,0,0,0,0,0,0,0,0,0,0,0,0,0,0,0,0,0,0,0,0,0,0,0,0,0,0,0,0,0,0,0,0,0,0,0,0,0,0,0,0,0,0,0,0,0,0,0,0,0,0,0,0,0,0,0,0,0,0,0,0],"sum_hessian":[2.232E3,1.799E3,4.33E2,1.649E3,1.5E2,3.26E2,1.07E2,1.006E3,6.43E2,1.37E2,1.3E1,2.59E2,6.7E1,8.4E1,2.3E1,3.81E2,6.25E2,7E0,6.36E2,1.13E2,2.4E1,1E1,3E0,2.42E2,1.7E1,5.3E1,1.4E1,6.7E1,1.7E1,1.3E1,1E1,6.8E1,3.13E2,5.76E2,4.9E1,2E0,5E0,2.09E2,4.27E2,9.3E1,2E1,1.3E1,1.1E1,9E0,1E0,2E0,1E0,9E0,2.33E2,7E0,1E1,1.6E1,3.7E1,5E0,9E0,6.6E1,1E0,1.6E1,1E0,5E0,8E0,9E0,1E0],"tree_param":{"num_deleted":"0","num_feature":"8","num_nodes":"63","size_leaf_vector":"1"}},{"base_weights":[9.296038E-2,-9.964942E-1,9.229341E0,-2.0064583E0,1.4253359E0,7.0124435E0,1.4557501E1,-3.2155228E0,1.24569595E-1,3.3851006E0,-1.0429715E0,8.31374E0,9.0941447E-1,1.6586222E1,6.148354E0,-2.9412298E0,-7.002031E0,1.5786617E0,-3.2565312E0,-2.5859032E0,4.4937906E0,3.1478703E-1,-1.5807474E1,6.8543944E0,1.0091345E0,-2.3279326E0,3.3768282E0,1.4667568E0,2.2239103E0,2.7305698E0,8.797594E0,-2.479153E-1,-5.378893E-1,-4.4456837E-1,-2.0994034E0,-2.3629712E-1,3.626298E-1,-2.1688263E-1,-8.2924455E-1,6.9695014E-1,-3.9837712E-1,4.7800636E-1,-3.6277005E-1,-2.0439427E-1,4.3396425E-1,-1.8984188E0,-4.1722044E-1,7.3400575E-1,3.140684E-1,2.1717651E-1,-4.3449885E-1,8.266883E-1,8.6012386E-2,3.3284825E-1,-7.2740935E-2,1.0724763E0,2.010727E-1],"categories":[],"categories_nodes":[],"categories_segments":[],"categories_sizes":[],"default_left":[0,0,0,0,0,0,0,0,0,0,0,0,0,0,0,0,0,0,0,0,0,0,0,0,0,0,0,0,0,0,0,0,0,0,0,0,0,0,0,0,0,0,0,0,0,0,0,0,0,0,0,0,0,0,0,0,0],"id":27,"left_children":[1,3,5,7,9,11,13,15,17,19,21,23,25,27,29,31,33,35,37,39,41,43,45,47,-1,49,51,-1,-1,53,55,-1,-1,-1,-1,-1,-1,-1,-1,-1,-1,-1,-1,-1,-1,-1,-1,-1,-1,-1,-1,-1,-1,-1,-1,-1,-1],"loss_changes":[2.2235742E4,4.8849995E3,2.709168E3,3.6307593E3,2.847864E3,1.3425537E3,1.0751504E3,9.1311816E2,2.5174377E3,2.1829783E3,5.237146E3,2.9400977E2,2.5548512E2,2.7033203E2,1.1179547E2,9.3283105E2,2.0527722E3,2.8979978E3,8.255636E2,7.223389E2,6.6135547E2,2.287321E3,7.3395703E2,1.2123633E2,0E0,1.3650226E2,2.1441226E2,0E0,0E0,1.8961723E1,8.307092E1,0E0,0E0,0E0,0E0,0E0,0E0,0E0,0E0,0E0,0E0,0E0,0E0,0E0,0E0,0E0,0E0,0E0,0E0,0E0,0E0,0E0,0E0,0E0,0E0,0E0,0E0],"parents":[2147483647,0,0,1,1,2,2,3,3,4,4,5,5,6,6,7,7,8,8,9,9,10,10,11,11,12,12,13,13,14,14,15,15,16,16,17,17,18,18,19,19,20,20,21,21,22,22,23,23,25,25,26,26,29,29,30,30],"right_children":[2,4,6,8,10,12,14,16,18,20,22,24,26,28,30,32,34,36,38,40,42,44,46,48,-1,50,52,-1,-1,54,56,-1,-1,-1,-1,-1,-1,-1,-1,-1,-1,-1,-1,-1,-1,-1,-1,-1,-1,-1,-1,-1,-1,-1,-1,-1,-1],"split_conditions":[1.73E2,6.6E1,2.73E2,3.0413813E1,2.8160255E1,9.828784E1,3E0,2.34E2,7E0,7.4E1,1.33E2,2.07E2,2.14E2,3.51E2,2.16845E2,1.6E1,2.1188047E1,1.3E1,1.1E1,1.0666667E1,7E0,5.5344376E1,1.15E2,4E0,1.0091345E0,1.1574074E1,1.1313487E2,1.4667568E0,2.2239103E0,1.8236E2,4E0,-2.479153E-1,-5.378893E-1,-4.4456837E-1,-2.0994034E0,-2.3629712E-1,3.626298E-1,-2.1688263E-1,-8.2924455E-1,6.9695014E-1,-3.9837712E-1,4.7800636E-1,-3.6277005E-1,-2.0439427E-1,4.3396425E-1,-1.8984188E0,-4.1722044E-1,7.3400575E-1,3.140684E-1,2.1717651E-1,-4.3449885E-1,8.266883E-1,8.6012386E-2,3.3284825E-1,-7.2740935E-2,1.0724763E0,2.010727E-1],"split_indices":[7,7,7,6,6,6,1,0,1,7,0,7,7,7,2,1,6,7,1,3,1,6,7,1,0,3,6,0,0,2,1,0,0,0,0,0,0,0,0,0,0,0,0,0,0,0,0,0,0,0,0,0,0,0,0,0,0],"split_type":[0,0,0,0,0,0,0,0,0,0,0,0,0,0,0,0,0,0,0,0,0,0,0,0,0,0,0,0,0,0,0,0,0,0,0,0,0,0,0,0,0,0,0,0,0,0,0,0,0,0,0,0,0,0,0,0,0],"sum_hessian":[2.232E3,1.995E3,2.37E2,1.408E3,5.87E2,1.69E2,6.8E1,8.98E2,5.1E2,3.27E2,2.6E2,1.39E2,3E1,5.4E1,1.4E1,8.39E2,5.9E1,3.57E2,1.53E2,5.1E1,2.76E2,2.39E2,2.1E1,7.9E1,6E1,1.3E1,1.7E1,4.3E1,1.1E1,7E0,7E0,7.07E2,1.32E2,5.1E1,8E0,1.22E2,2.35E2,1.27E2,2.6E1,6E0,4.5E1,2.67E2,9E0,1.51E2,8.8E1,1.6E1,5E0,6.9E1,1E1,4E0,9E0,5E0,1.2E1,6E0,1E0,5E0,2E0],"tree_param":{"num_deleted":"0","num_feature":"8","num_nodes":"57","size_leaf_vector":"1"}},{"base_weights":[8.4584154E-2,-8.9981174E-1,8.339919E0,-2.0573878E0,8.2612747E-1,7.191293E0,1.7049873E1,-3.219984E0,-1.185977E-1,1.7533413E0,-1.9004766E0,8.408797E0,2.210664E0,1.7663656E0,5.4574966E-2,-5.6199217E0,-2.844654E0,1.2570401E0,-2.8967748E0,2.1648552E0,-4.2110863E0,-6.417189E0,-6.1827314E-1,6.182053E0,1.0273971E1,-1.064262E0,4.847658E0,-7.6695234E-1,-3.657643E-1,-2.4251118E-1,-4.8095223E-1,-2.1285947E-1,3.5764596E-1,-1.884649E-1,-7.612423E-1,1.6529514E-1,9.810812E-1,-2.3283863E0,-1.9749145E-1,-9.9803275E-1,-3.672122E-1,8.486485E-2,-4.163184E-1,6.6165346E-1,2.8551644E-1,9.098749E-1,1.2255085E0,5.8082086E-1,-1.7316662E-1,1.4789811E-1,6.4395607E-1],"categories":[],"categories_nodes":[],"categories_segments":[],"categories_sizes":[],"default_left":[0,0,0,0,0,0,0,0,0,0,0,0,0,0,0,0,0,0,0,0,0,0,0,0,0,0,0,0,0,0,0,0,0,0,0,0,0,0,0,0,0,0,0,0,0,0,0,0,0,0,0],"id":28,"left_children":[1,3,5,7,9,11,13,15,17,19,21,23,25,-1,-1,27,29,31,33,35,37,39,41,43,45,47,49,-1,-1,-1,-1,-1,-1,-1,-1,-1,-1,-1,-1,-1,-1,-1,-1,-1,-1,-1,-1,-1,-1,-1,-1],"loss_changes":[1.8154018E4,3.98952E3,2.258455E3,2.6931836E3,2.0309043E3,1.2669648E3,2.6386963E2,6.568882E2,1.719614E3,1.4793292E3,1.1774667E3,6.42541E2,3.765055E2,0E0,0E0,3.7413647E2,5.225117E2,2.3712778E3,6.968048E2,2.1795342E3,1.6173667E3,4.034983E2,8.355499E2,9.674634E1,1.0036426E2,1.0179219E2,1.1917853E2,0E0,0E0,0E0,0E0,0E0,0E0,0E0,0E0,0E0,0E0,0E0,0E0,0E0,0E0,0E0,0E0,0E0,0E0,0E0,0E0,0E0,0E0,0E0,0E0],"parents":[2147483647,0,0,1,1,2,2,3,3,4,4,5,5,6,6,7,7,8,8,9,9,10,10,11,11,12,12,15,15,16,16,17,17,18,18,19,19,20,20,21,21,22,22,23,23,24,24,25,25,26,26],"right_children":[2,4,6,8,10,12,14,16,18,20,22,24,26,-1,-1,28,30,32,34,36,38,40,42,44,46,48,50,-1,-1,-1,-1,-1,-1,-1,-1,-1,-1,-1,-1,-1,-1,-1,-1,-1,-1,-1,-1,-1,-1,-1,-1],"split_conditions":[1.73E2,4.7E1,3.32E2,3.0413813E1,5E0,9.828784E1,4E0,4E0,7E0,1.4E2,2.2483464E2,2.07E2,2.37E2,1.7663656E0,5.4574966E-2,1E1,1.5E1,1.3E1,2.8E1,9.9E1,4E0,3.2233524E1,4.5E1,4E0,2.73E2,3E0,7E0,-7.6695234E-1,-3.657643E-1,-2.4251118E-1,-4.8095223E-1,-2.1285947E-1,3.5764596E-1,-1.884649E-1,-7.612423E-1,1.6529514E-1,9.810812E-1,-2.3283863E0,-1.9749145E-1,-9.9803275E-1,-3.672122E-1,8.486485E-2,-4.163184E-1,6.6165346E-1,2.8551644E-1,9.098749E-1,1.2255085E0,5.8082086E-1,-1.7316662E-1,1.4789811E-1,6.4395607E-1],"split_indices":[7,7,7,6,1,6,1,7,1,5,2,7,7,0,0,1,1,7,7,5,0,6,0,1,7,0,0,0,0,0,0,0,0,0,0,0,0,0,0,0,0,0,0,0,0,0,0,0,0,0,0],"split_type":[0,0,0,0,0,0,0,0,0,0,0,0,0,0,0,0,0,0,0,0,0,0,0,0,0,0,0,0,0,0,0,0,0,0,0,0,0,0,0,0,0,0,0,0,0,0,0,0,0,0,0],"sum_hessian":[2.232E3,1.995E3,2.37E2,1.194E3,8.01E2,2.11E2,2.6E1,7.46E2,4.48E2,5.98E2,2.03E2,1.69E2,4.2E1,2.5E1,1E0,9.9E1,6.47E2,3E2,1.48E2,5.6E2,3.8E1,4.4E1,1.59E2,7.9E1,9E1,1.9E1,2.3E1,4.7E1,5.2E1,5.35E2,1.12E2,1.22E2,1.78E2,1.23E2,2.5E1,5.26E2,3.4E1,3E0,3.5E1,1.8E1,2.6E1,1.13E2,4.6E1,6.9E1,1E1,6E1,3E1,1E0,1.8E1,8E0,1.5E1],"tree_param":{"num_deleted":"0","num_feature":"8","num_nodes":"51","size_leaf_vector":"1"}},{"base_weights":[7.628925E-2,-9.342021E-1,6.6663413E0,-2.369242E0,3.3211764E-2,5.051896E0,1.1927814E1,-5.232224E0,-1.6622746E0,8.951732E-1,-2.903483E0,6.504291E0,1.7945299E0,1.355547E1,5.1645527E0,-6.352846E0,-3.7967222E0,-1.2826089E0,-7.51334E0,1.7709864E0,-1.6785733E0,-1.0181986E0,-5.10755E0,5.5222225E0,7.690985E-1,2.3843536E0,-6.5859795E0,1.1876695E1,1.858136E0,2.174591E0,7.5089455E0,-6.65681E-1,-3.0463958E-1,-3.3095986E-1,-6.108605E-1,-8.502893E-2,-4.5346123E-1,-1.892807E-1,-8.9490557E-1,9.2318684E-2,5.847141E-1,9.389477E-2,-8.2569563E-1,9.215941E-2,-4.644645E-1,-3.6612293E-1,-7.0881015E-1,5.2263427E-1,7.009914E-1,-5.512064E-1,2.8336045E-1,-1.5384954E-1,-9.4381374E-1,1.2238396E0,6.607745E-1,4.726685E-2,3.7583467E-1,9.1073334E-1,1.8091889E-1],"categories":[],"categories_nodes":[],"categories_segments":[],"categories_sizes":[],"default_left":[0,0,0,0,0,0,0,0,0,0,0,0,0,0,0,0,0,0,0,0,0,0,0,0,0,0,0,0,0,0,0,0,0,0,0,0,0,0,0,0,0,0,0,0,0,0,0,0,0,0,0,0,0,0,0,0,0,0,0],"id":29,"left_children":[1,3,5,7,9,11,13,15,17,19,21,23,25,27,29,31,33,35,37,39,41,43,45,47,-1,49,51,53,-1,55,57,-1,-1,-1,-1,-1,-1,-1,-1,-1,-1,-1,-1,-1,-1,-1,-1,-1,-1,-1,-1,-1,-1,-1,-1,-1,-1,-1,-1],"loss_changes":[1.4876199E4,2.6891719E3,2.4625664E3,1.5700493E3,2.9338647E3,1.0717231E3,6.895625E2,2.2361328E2,1.3832118E3,2.0226654E3,1.0876418E3,1.4166406E2,3.7160104E2,2.4336816E2,8.8815796E1,6.514917E1,5.861505E1,8.2562823E2,2.8970142E2,2.306507E3,3.9336973E3,1.0102216E3,3.206548E2,2.9799805E0,0E0,2.5684723E2,5.746054E1,2.9868164E0,0E0,1.9786983E1,5.6406433E1,0E0,0E0,0E0,0E0,0E0,0E0,0E0,0E0,0E0,0E0,0E0,0E0,0E0,0E0,0E0,0E0,0E0,0E0,0E0,0E0,0E0,0E0,0E0,0E0,0E0,0E0,0E0,0E0],"parents":[2147483647,0,0,1,1,2,2,3,3,4,4,5,5,6,6,7,7,8,8,9,9,10,10,11,11,12,12,13,13,14,14,15,15,16,16,17,17,18,18,19,19,20,20,21,21,22,22,23,23,25,25,26,26,27,27,29,29,30,30],"right_children":[2,4,6,8,10,12,14,16,18,20,22,24,26,28,30,32,34,36,38,40,42,44,46,48,-1,50,52,54,-1,56,58,-1,-1,-1,-1,-1,-1,-1,-1,-1,-1,-1,-1,-1,-1,-1,-1,-1,-1,-1,-1,-1,-1,-1,-1,-1,-1,-1,-1],"split_conditions":[1.55E2,2.5E1,2.73E2,7.071068E0,6E0,5.6568542E1,3E0,1.4E1,1.35E2,1.12E2,2.5E1,2E2,6E0,3.51E2,2.16845E2,5.879231E0,4E0,2E1,1.1756757E1,5.727565E1,1.5636496E1,1E1,8E0,1.1460075E1,7.690985E-1,6.737E1,1.4E1,8.2608694E-1,1.858136E0,4E0,4E0,-6.65681E-1,-3.0463958E-1,-3.3095986E-1,-6.108605E-1,-8.502893E-2,-4.5346123E-1,-1.892807E-1,-8.9490557E-1,9.2318684E-2,5.847141E-1,9.389477E-2,-8.2569563E-1,9.215941E-2,-4.644645E-1,-3.6612293E-1,-7.0881015E-1,5.2263427E-1,7.009914E-1,-5.512064E-1,2.8336045E-1,-1.5384954E-1,-9.4381374E-1,1.2238396E0,6.607745E-1,4.726685E-2,3.7583467E-1,9.1073334E-1,1.8091889E-1],"split_indices":[7,7,7,6,1,6,1,7,0,0,0,7,1,7,2,6,1,1,3,6,6,1,1,6,0,2,0,4,0,1,1,0,0,0,0,0,0,0,0,0,0,0,0,0,0,0,0,0,0,0,0,0,0,0,0,0,0,0,0],"split_type":[0,0,0,0,0,0,0,0,0,0,0,0,0,0,0,0,0,0,0,0,0,0,0,0,0,0,0,0,0,0,0,0,0,0,0,0,0,0,0,0,0,0,0,0,0,0,0,0,0,0,0,0,0,0,0,0,0,0,0],"sum_hessian":[2.232E3,1.936E3,2.96E2,7.79E2,1.157E3,2.28E2,6.8E1,1.53E2,6.26E2,8.95E2,2.62E2,1.57E2,7.1E1,5.4E1,1.4E1,8.4E1,6.9E1,5.89E2,3.7E1,6.68E2,2.27E2,1.42E2,1.2E2,8.9E1,6.8E1,6.7E1,4E0,4.3E1,1.1E1,7E0,7E0,7.6E1,8E0,5.9E1,1E1,5.21E2,6.8E1,8E0,2.9E1,5.54E2,1.14E2,1.63E2,6.4E1,9.3E1,4.9E1,7.1E1,4.9E1,7.8E1,1.1E1,3E0,6.4E1,2E0,2E0,3.9E1,4E0,4E0,3E0,5E0,2E0],"tree_param":{"num_deleted":"0","num_feature":"8","num_nodes":"59","size_leaf_vector":"1"}},{"base_weights":[6.904041E-2,-1.0832026E0,4.8477697E0,-1.286661E0,5.647523E0,3.3273234E0,9.406456E0,-3.1003485E0,-7.6523006E-1,8.508424E0,-3.8803017E-1,4.291756E0,-4.091444E-1,1.0952885E1,3.5375853E0,-6.8177624E0,-2.1788795E0,-4.345411E-1,-3.8618064E0,5.151981E0,1.6719978E1,-2.673202E0,8.278372E0,4.8156056E0,-3.0186458E0,-1.859665E0,4.840006E0,9.544119E0,1.5666395E1,1.606187E0,5.67413E0,-7.148466E-1,-6.259324E-2,-1.6703562E-1,-5.620505E-1,1.4231326E-2,-2.728522E-1,-2.0060001E-1,-5.6045765E-1,2.4654232E-1,9.4725865E-1,1.8165468E0,1.8552856E-1,-6.3391574E-2,-5.626479E-1,1.1747785E0,-1.06493376E-1,1.2685554E0,4.4587037E-1,-1.1566768E0,-1.2272077E-1,-6.0683703E-1,7.211535E-3,8.018759E-1,-1.2645836E-1,9.8600245E-1,5.3826576E-1,1.6133181E0,3.8655242E-1,2.6951808E-1,-1.7900924E-1,3.3883604E-1,7.739381E-1],"categories":[],"categories_nodes":[],"categories_segments":[],"categories_sizes":[],"default_left":[0,0,0,0,0,0,0,0,0,0,0,0,0,0,0,0,0,0,0,0,0,0,0,0,0,0,0,0,0,0,0,0,0,0,0,0,0,0,0,0,0,0,0,0,0,0,0,0,0,0,0,0,0,0,0,0,0,0,0,0,0,0,0],"id":30,"left_children":[1,3,5,7,9,11,13,15,17,19,21,23,25,27,29,31,33,35,37,39,41,43,45,47,49,51,53,55,57,59,61,-1,-1,-1,-1,-1,-1,-1,-1,-1,-1,-1,-1,-1,-1,-1,-1,-1,-1,-1,-1,-1,-1,-1,-1,-1,-1,-1,-1,-1,-1,-1,-1],"loss_changes":[1.2300725E4,2.4722273E3,2.9768584E3,1.6507334E3,9.1845886E2,1.1801243E3,9.4143945E2,1.321083E3,1.3899427E3,9.060769E2,3.786057E2,1.0102197E3,5.2675287E2,4.1489746E2,8.992273E1,1.5319531E2,5.401577E2,1.6267153E3,4.124431E2,2.900501E2,1.8116577E2,8.677194E1,1.4217377E2,6.2597705E2,2.6144696E2,4.394735E2,3.0121518E2,3.632129E1,3.678955E1,5.6604004E1,2.5703735E1,0E0,0E0,0E0,0E0,0E0,0E0,0E0,0E0,0E0,0E0,0E0,0E0,0E0,0E0,0E0,0E0,0E0,0E0,0E0,0E0,0E0,0E0,0E0,0E0,0E0,0E0,0E0,0E0,0E0,0E0,0E0,0E0],"parents":[2147483647,0,0,1,1,2,2,3,3,4,4,5,5,6,6,7,7,8,8,9,9,10,10,11,11,12,12,13,13,14,14,15,15,16,16,17,17,18,18,19,19,20,20,21,21,22,22,23,23,24,24,25,25,26,26,27,27,28,28,29,29,30,30],"right_children":[2,4,6,8,10,12,14,16,18,20,22,24,26,28,30,32,34,36,38,40,42,44,46,48,50,52,54,56,58,60,62,-1,-1,-1,-1,-1,-1,-1,-1,-1,-1,-1,-1,-1,-1,-1,-1,-1,-1,-1,-1,-1,-1,-1,-1,-1,-1,-1,-1,-1,-1,-1,-1],"split_conditions":[1.21E2,1.1721917E2,2.37E2,1.1E1,4E0,4E0,1.0423491E2,4E0,1.1E1,2.9E1,4.6E1,8.640409E1,1.3742857E1,3.41E2,2.85E2,9.612145E1,6.8E1,1.12E2,2.2E1,1.569777E2,3E1,7.5E1,2.4336E2,4E0,1.37E2,1.41E2,4E1,8.2608694E-1,2.6E1,1.7465538E2,8.3E1,-7.148466E-1,-6.259324E-2,-1.6703562E-1,-5.620505E-1,1.4231326E-2,-2.728522E-1,-2.0060001E-1,-5.6045765E-1,2.4654232E-1,9.4725865E-1,1.8165468E0,1.8552856E-1,-6.3391574E-2,-5.626479E-1,1.1747785E0,-1.06493376E-1,1.2685554E0,4.4587037E-1,-1.1566768E0,-1.2272077E-1,-6.0683703E-1,7.211535E-3,8.018759E-1,-1.2645836E-1,9.8600245E-1,5.3826576E-1,1.6133181E0,3.8655242E-1,2.6951808E-1,-1.7900924E-1,3.3883604E-1,7.739381E-1],"split_indices":[7,6,7,7,1,1,6,1,1,7,7,6,3,7,7,6,0,0,7,6,0,5,2,0,7,7,0,4,